{"learner":{"attributes":{"best_iteration":"99","best_ntree_limit":"100","scikit_learn":"{\"use_label_encoder\": null, \"n_estimators\": 100, \"objective\": \"binary:logistic\", \"max_depth\": 12, \"max_leaves\": null, \"max_bin\": null, \"grow_policy\": null, \"learning_rate\": 0.15, \"verbosity\": null, \"booster\": null, \"tree_method\": null, \"gamma\": 0.4, \"min_child_weight\": 7, \"max_delta_step\": null, \"subsample\": null, \"sampling_method\": null, \"colsample_bytree\": 0.7, \"colsample_bylevel\": null, \"colsample_bynode\": null, \"reg_alpha\": null, \"reg_lambda\": null, \"scale_pos_weight\": null, \"base_score\": null, \"missing\": NaN, \"num_parallel_tree\": null, \"random_state\": null, \"n_jobs\": null, \"monotone_constraints\": null, \"interaction_constraints\": null, \"importance_type\": null, \"gpu_id\": null, \"validate_parameters\": null, \"predictor\": null, \"enable_categorical\": false, \"feature_types\": null, \"max_cat_to_onehot\": null, \"max_cat_threshold\": null, \"eval_metric\": null, \"early_stopping_rounds\": null, \"callbacks\": null, \"classes_\": [0, 1], \"n_classes_\": 2, \"_estimator_type\": \"classifier\"}"},"feature_names":["Age","Gender","Location","Subscription_Length_Months","Monthly_Bill","Total_Usage_GB"],"feature_types":["int","int","int","int","float","int"],"gradient_booster":{"model":{"gbtree_model_param":{"num_parallel_tree":"1","num_trees":"100","size_leaf_vector":"0"},"tree_info":[0,0,0,0,0,0,0,0,0,0,0,0,0,0,0,0,0,0,0,0,0,0,0,0,0,0,0,0,0,0,0,0,0,0,0,0,0,0,0,0,0,0,0,0,0,0,0,0,0,0,0,0,0,0,0,0,0,0,0,0,0,0,0,0,0,0,0,0,0,0,0,0,0,0,0,0,0,0,0,0,0,0,0,0,0,0,0,0,0,0,0,0,0,0,0,0,0,0,0,0],"trees":[{"base_weights":[-9.599573E-3,-2.5986508E-2,1.5096231E-2,3.041568E-2,-3.7053414E-2,9.137769E-3,1.3045944E-1,2.1764297E-2,3.3744857E-1,-9.09419E-2,-2.9525872E-2,1.08807525E-2,-4.055944E-1,-3.5714287E-2,1.8650493E-1,2.4869261E-2,-7.027027E-1,6.741573E-2,4.8101267E-1,-7.900677E-2,-3.652174E-1,4.6250876E-2,-3.8681988E-2,1.632653E-1,8.65181E-3,-8.510638E-2,-9.433962E-1,3.508772E-2,-5.660377E-1,2.4747938E-1,-1.0344828E-1,-1.0313076E-2,8.493237E-2,-2.5641027E-1,2.962963E-1,9.5238096E-1,3E-1,-8.5000955E-2,3.561644E-1,-4.489796E-1,1.0526316E-1,1.438849E-2,2.706767E-1,-5.125628E-1,-3.6000226E-2,-1.6216215E-1,3.0057803E-1,-1.6157989E-1,1.1527028E-2,-4.5454547E-1,2.2222222E-1,-1.8018018E-2,2.857143E-1,5.611511E-1,2.0083682E-1,5.4545456E-1,-2.0689656E-1,1.30612245E-2,-2.247191E-1,3.5428572E-1,6.9148935E-2,-5.4054055E-2,8E-1,-7.4251495E-2,-3.0705395E-1,5.263158E-1,1.5384616E-1,-7.2727275E-1,-3.5897437E-1,-6.4794816E-2,9.133858E-2,2.1719457E-1,5.106383E-1,-8E-1,-3.7762237E-1,1.6783852E-2,-4.3547392E-2,2.769231E-1,-4.827586E-1,5.225225E-1,1.9246861E-1,-4.9056605E-1,-8.3516486E-2,3.5135135E-1,9.993297E-3,7.76699E-2,-1.6793893E-1,4.864865E-1,5.4054055E-2,8.4444445E-1,4.0816328E-1,1.6545013E-1,4.057971E-1,-2.857143E-1,1.5384616E-1,-7.6045627E-3,2.2632794E-1,-5.2348995E-1,-1.0796915E-1,7.878788E-1,2.4657534E-1,-8E-1,8.07537E-2,-2.7272728E-1,2.3529412E-1,-8.143322E-2,2.7450982E-1,-5.479452E-1,6.0606062E-2,-2.0289855E-1,-4.6153846E-1,-4.812535E-2,-4.9275362E-1,7.777778E-1,7.7949814E-2,2.6634383E-1,-4.2424244E-1,9E-1,2.0689656E-1,-5E-1,-1E0,-1.7475729E-1,-8.181818E-1,-5.9279528E-2,9.189189E-2,3.17757E-1,-4.4800416E-2,-6.0606062E-2,5.555556E-1,5.7142857E-2,-7.8571427E-1,2.0289855E-1,9.5652175E-1,8.791209E-2,4.918033E-1,-4.6511628E-2,-7.4626863E-1,-0E0,-2.7737227E-1,2.0560747E-1,6.666667E-1,7.618222E-3,1.5327103E-1,-1.923077E-1,3.3962265E-1,-5.555556E-1,-2.020202E-2,3.6363635E-2,8.0851066E-1,2.1082622E-1,-9.677419E-2,7.924528E-1,1.5730338E-1,-1.7910448E-1,-6.315789E-1,-9.0415915E-4,-5.882353E-1,4.1048035E-1,1.923077E-2,-6.542056E-1,-1.7391305E-1,2.5E-1,-1.9808307E-1,5.1428574E-1,-0E0,5.6E-1,7.2453864E-2,-7.283382E-2,-3.768116E-1,7.826087E-1,-1.3333334E-1,-8.5714287E-1,-2.9885057E-1,2.2222222E-1,-2.9850746E-2,1.0526316E-1,-5.1428574E-1,-7.692308E-1,-2.1428572E-1,-5.811966E-2,4.4444445E-1,-1.8181819E-1,-7E-1,6.147091E-2,6.181818E-1,3.5036495E-1,9.79021E-2,-3.75E-1,1.3953489E-1,-7.8066915E-2,8.4444445E-1,2.8162292E-1,4.764543E-2,1.5789473E-1,6.2857145E-1,-9.743041E-2,-3.7506487E-2,6.315789E-1,-2.857143E-1,2.6666668E-1,-8.3333336E-2,6.666667E-1,2.5E-1,-5.1428574E-1,-8.888889E-1,-8.144797E-2,1.7142858E-1,-4.7887325E-1,-5.7142857E-2,-2.8985508E-2,5.714286E-1,1.1705685E-2,-9.8415345E-2,7.027027E-1,9.345794E-3,-3.783784E-1,-8.450704E-2,3.9215688E-2,5.762712E-1,3.4146342E-1,-2.580645E-1,1.789639E-1,4.9275362E-1,-6.2857145E-1,1.0752688E-1,-1.904762E-1,4.3137255E-1,-4.1269842E-1,2.6666667E-2,3.902439E-1,-8.283479E-3,4.969697E-1,1.764706E-1,-6.9767445E-2,4E-1,-3.3333334E-1,-9.8039216E-1,-5.4054055E-2,4.680851E-1,-5.2380955E-1,-7.725322E-2,3E-1,7.058824E-1,-2.857143E-1,2.857143E-1,-2.857143E-1,8.566371E-2,-8.593926E-2,1.00890204E-1,-4.3636364E-1,-1.25E-1,-6.0465115E-1,-0E0,1.25E-1,-1.5384616E-1,2.7548209E-2,-1.1810261E-1,1.919192E-1,2.5174825E-2,1.6774194E-1,5.691057E-1,-2.1621622E-1,4.1095892E-1,-7.058824E-1,-0E0,-8.0701756E-1,-5.8122914E-2,-9.3457945E-2,4.050633E-1,-7.933194E-2,9.3233086E-2,4E-1,-1.7142858E-1,-8.521031E-2,-9.0909094E-1,1.8546216E-2,-4.5425706E-2,-4.6511628E-2,5.0980395E-1,-2.3728813E-1,1.4634146E-1,2.2727273E-1,-2.7737227E-1,-2E-1,6.122449E-1,-1.4634146E-1,-8.235294E-1,1.5384616E-1,-2.857143E-1,1.1111111E-1,-1.6216215E-1,5.5917986E-3,9.488022E-2,-2.3003195E-1,4.5060657E-2,1.030303E0,2.0408164E-1,-5.4945055E-2,3.529412E-1,-2.5641027E-1,1.1111111E-1,-0E0,-5E-1,5.3061223E-1,1.4864865E-1,1.5384616E-1,8.235294E-1,3.6065573E-1,-3.3333334E-1,-5.4545456E-1,-2.3529412E-1,3.1111112E-1,-3.529412E-1,5.1282052E-2,6.3829786E-1,-5.5E-1,1.8735363E-3,2.6086956E-1,6.4E-1,2.857143E-1,5.4054055E-2,-2.4E-1,5.940594E-2,-3.255814E-1,-6.666667E-1,-1.4432989E-1,2.3255815E-1,-4.4444445E-1,5.4054055E-2,6.0240966E-1,6.9919884E-2,-7.555758E-2,-9.0909094E-1,1.971831E-1,-3.859649E-1,-3E-1,-7.058824E-1,2.4680851E-1,-7.6767676E-2,-4.3137255E-1,-4.0816326E-2,2.521994E-1,-1.6949153E-1,-1.1881188E-1,8.15534E-2,3.3070865E-1,-5E-1,2.9268292E-1,1.0222223E0,-9.090909E-2,-3.529412E-1,8.75E-1,4.4444446E-2,-9.314704E-3,-1.8E-1,1.5789473E-1,-6.2857145E-1,5.52381E-1,1.0909091E-1,-1.4814815E-2,-4.1025642E-1,8.75E-1,7.373272E-2,-9.3457945E-2,5.0980395E-1,-4.652709E-3,2.2485207E-1,-2.5E-1,-4.0600788E-2,-1.2765957E-1,5.777778E-1,-5.8252428E-2,-8.4210527E-1,8.898158E-3,-4.585366E-1,1.9672132E-1,-1.352657E-2,-1.7793594E-1,-6.4705884E-1,2.3809524E-1,-3.3898305E-2,6.315789E-1,1.375E0,2.6845638E-2,-4E-1,1E-1,6.25E-1,-1.0471204E-2,2.2222222E-1,1.25E-1,-9.230769E-1,6.3414633E-1,-4.2523034E-3,4.6153846E-1,-0E0,1E0,3.3333334E-1,9.52381E-2,-5.945946E-1,2.580645E-1,-2.3255815E-1,-2.5641026E-2,-5.714286E-1,-1.8181819E-1,-6.0465115E-1,1.8181819E-1,8.148148E-1,3.275705E-2,2.173913E-1,-8.966053E-2,2.5974026E-2,4.489796E-1,1.4225942E-1,-5.3061223E-1,5.7142857E-2,6.0714287E-1,-7.874016E-2,-1.2473118E-1,5.882353E-1,-1.3953489E-1,-6.229508E-1,1.3333334E-1,-1.2345679E-1,-1.8181819E-1,2.948718E-1,-2.0761246E-2,-3.529412E-1,-2.3529412E-1,1.2917595E-1,5.625E-1,8.955224E-2,6E-1,-0E0,-7.205453E-2,1.25E-1,-8.363636E-1,-1.1293261E-1,-1.904762E-1,5.263158E-1,3.0215827E-1,9.866667E-1,6.666667E-1,-2.2222222E-1,-9.638554E-2,3.3766234E-1,-5.4545456E-1,-2.1052632E-1,-5.4545456E-1,8.955224E-2,-3.5451796E-2,-1.9413093E-1,-9.222662E-2,2.4844721E-2,1.589404E-1,7E-1,-4.7804877E-1,-1.10787176E-1,1.0062893E-1,-4.4590805E-2,4.2424244E-1,-2.7027026E-1,-1.16564415E-1,1.1805704E-2,-7.2E-1,-2.0183486E-1,1.6524217E-1,8.5714287E-1,-4.5783132E-1,2.5104603E-2,-4.3274853E-1,-6.582279E-2,-1.027027E0,-1.7142858E-1,-0E0,3.6363637E-1,-1.2794612E-1,2E-1,-7.2874494E-2,4.7272727E-1,-9.0909094E-1,4.8780486E-2,-1.4379086E-1,4.7619048E-1,5.714286E-1,1.2923077E-1,3.2832693E-2,-8.151383E-2,-2.2222222E-1,7.54717E-2,1.3277134E-1,-4.309657E-2,2.3904383E-2,3.737705E-1,-8.004297E-2,-3.4285715E-1,-4.8387095E-2,8.0851066E-1,-2E-1,2.0689656E-1,2.0689656E-1,9.655172E-1,-5.5172414E-1,3.0136988E-1,2.2222222E-1,-1.773399E-1,-5.945946E-1,1.8867925E-1,-1.2244898E-1,-9.0909094E-1,3.3734939E-1,-1.8518518E-1,-2.9288703E-1,-0E0,9.3457945E-2,3.923445E-1,1.1764706E-1,-2.6415095E-1,-6.3736266E-1,5E-1,-4.0816326E-2,-6.666667E-1,2.2018349E-1,-1.1290322E-1,9.411765E-1,1.1764706E-1,-1.1764706E-1,2.7027026E-1,-8.835341E-2,4E-1,6.885246E-1,4.255319E-2,-1.0989011E-2,-3.068783E-1,4.918033E-1,1.4634146E-1,3.529412E-1,1.3777778E0,-0E0,-3.6363637E-1,3.9215688E-2,-5.185185E-1,7.368421E-1,-4.6511628E-2,2.88E-1,4.0895812E-2,-5.95291E-2,7.878788E-1,-7.97546E-2,-3.024963E-1,-1.5864022E-1,7.368421E-1,1.14135206E-1,-6.6130474E-2,3.9370078E-1,-1.1173184E-2,-1.8181819E-1,-7.878788E-1,9.009009E-2,-2.0338982E-1,2.4040921E-1,-1.2048193E-1,-7.027027E-1,-4.3497637E-2,4.6511628E-2,-6.2857145E-1,4E-1,-1.5384616E-1,1.1039493E-2,4.888889E-1,-8.9361703E-1,-5.263158E-1,-5E-1,2.0408164E-1,3.8938054E-1,1.0348977E-1,-7E-1,-2.1276596E-1,-1.641266E-2,3.5514018E-1,-7.39726E-1,-1.9607843E-1,2.4113475E-1,-2.3255815E-1,3.75E-1,-3.529412E-1,-1.6E-1,7.5E-1,-3.4782607E-2,-4.225352E-1,5.945946E-1,2.2988506E-2,1.12E-1,-2.5396827E-1,1.5384616E-1,-3.478261E-1,1.7142858E-1,7.924528E-1,4.7619048E-1,4.511278E-2],"categories":[],"categories_nodes":[],"categories_segments":[],"categories_sizes":[],"default_left":[1,1,1,1,1,1,1,1,1,1,1,1,1,1,1,1,0,1,1,1,1,1,1,1,1,1,0,1,0,1,1,1,1,0,0,0,1,1,1,1,0,1,1,1,1,1,1,1,1,0,0,1,1,1,1,0,1,1,1,1,1,1,0,1,1,0,0,0,1,1,1,1,1,1,1,1,1,1,1,1,1,1,1,1,1,1,1,0,0,0,1,1,1,1,0,1,1,1,1,0,1,0,1,0,0,1,1,1,1,1,1,1,1,0,1,1,0,0,0,1,1,1,0,1,1,1,1,0,0,0,0,1,0,1,1,0,1,1,1,1,0,1,1,1,1,0,1,0,0,1,1,0,1,1,0,1,0,1,1,1,0,1,1,1,1,0,1,1,1,0,0,0,1,1,1,0,0,0,0,1,0,0,0,1,0,1,1,1,0,1,0,1,1,1,0,1,1,0,0,1,1,0,0,1,1,1,1,1,1,1,0,1,1,1,1,0,1,0,0,0,1,1,1,0,1,0,0,1,1,1,1,1,1,1,0,0,0,0,0,1,1,0,0,0,0,1,1,1,1,1,0,0,0,1,1,1,1,1,1,1,1,1,1,0,0,0,1,1,1,1,1,0,0,1,0,1,1,0,0,0,0,1,1,0,0,0,0,0,0,1,1,1,1,1,1,1,0,1,1,0,0,0,0,0,1,0,0,0,0,1,1,0,0,0,0,1,1,1,1,1,1,1,1,1,1,1,0,1,0,1,1,1,0,1,0,1,0,1,1,1,1,1,0,1,1,1,0,1,0,1,1,0,0,1,1,1,0,1,1,1,1,0,1,1,0,1,1,1,1,0,0,1,0,1,1,1,1,1,1,1,1,0,0,1,1,0,0,1,1,0,0,0,1,0,0,0,0,0,0,0,0,1,0,0,0,0,0,1,1,1,1,0,1,0,0,1,1,1,0,1,1,1,1,0,1,1,1,1,1,1,1,0,0,1,1,0,1,0,0,1,1,0,1,1,1,0,0,0,1,1,1,1,1,1,0,1,1,1,1,0,1,1,1,1,1,1,0,1,1,1,1,0,0,1,1,1,1,1,0,0,0,1,0,1,1,0,0,0,0,0,0,0,0,0,0,0,0,0,0,0,0,0,0,0,0,0,0,0,0,0,0,0,0,0,0,0,0,0,0,0,0,0,0,0,0,0,0,0,0,0,0,0,0,0,0,0,0,0,0,0,0,0,0,0,0,0,0,0,0,0,0,0,0,0,0,0,0,0,0,0,0,0,0,0,0,0,0,0,0,1,1,0,0,0,0,0,0,0,0,0,0,0,0,0,0,0,0,0,0,0,0,0,0,0,0,0,0,0,0],"id":0,"left_children":[1,3,5,7,9,11,13,15,17,19,21,23,25,27,29,31,-1,33,35,37,39,41,43,45,47,49,-1,51,-1,53,55,57,59,-1,-1,-1,61,63,65,67,-1,69,71,73,75,77,79,81,83,-1,-1,85,87,89,91,-1,93,95,97,99,101,103,-1,105,107,-1,-1,-1,109,111,113,115,117,-1,121,123,125,127,129,131,133,135,137,139,141,143,145,-1,-1,-1,147,149,151,153,-1,155,157,159,161,-1,163,-1,165,-1,-1,167,169,171,-1,175,177,179,181,-1,183,185,-1,-1,-1,-1,-1,187,-1,189,191,193,195,-1,-1,-1,-1,197,-1,199,201,-1,-1,205,207,209,-1,211,213,215,217,-1,219,-1,-1,221,223,-1,225,227,-1,229,-1,231,233,235,-1,237,239,241,243,-1,245,247,249,-1,-1,-1,251,-1,-1,-1,-1,-1,-1,255,-1,-1,-1,257,-1,259,261,263,-1,265,-1,267,269,271,-1,273,275,-1,-1,277,279,-1,-1,-1,-1,281,283,285,287,-1,-1,291,293,295,297,-1,299,-1,-1,-1,301,303,305,-1,307,-1,-1,-1,311,313,315,317,-1,321,-1,-1,-1,-1,-1,-1,325,-1,-1,-1,-1,327,329,331,333,335,-1,-1,-1,-1,-1,337,339,341,343,345,347,-1,351,-1,-1,-1,353,355,357,359,361,-1,-1,363,-1,365,367,-1,-1,-1,-1,369,371,-1,-1,-1,-1,-1,-1,-1,-1,373,375,377,379,381,-1,383,385,-1,-1,-1,-1,-1,387,-1,-1,-1,-1,-1,-1,-1,-1,-1,-1,389,391,393,395,-1,-1,397,399,-1,-1,401,-1,403,-1,405,407,409,-1,411,-1,413,-1,415,417,419,421,423,-1,425,427,429,-1,431,-1,-1,-1,-1,-1,433,435,437,-1,439,441,443,445,-1,447,449,-1,451,453,455,457,-1,-1,459,-1,461,463,465,467,469,471,473,475,-1,-1,477,479,-1,-1,481,483,-1,-1,-1,485,-1,-1,-1,-1,-1,-1,-1,-1,487,-1,-1,-1,-1,-1,489,491,493,495,-1,497,-1,-1,499,501,503,-1,505,507,509,511,-1,513,515,517,519,521,523,525,-1,-1,527,529,-1,531,-1,-1,533,535,-1,537,539,541,-1,-1,-1,543,545,547,549,551,553,-1,555,557,559,561,-1,563,565,567,-1,571,573,-1,575,577,579,581,-1,-1,583,585,587,589,591,-1,-1,-1,593,-1,595,597,-1,-1,-1,-1,-1,-1,-1,-1,-1,-1,-1,-1,-1,-1,-1,-1,-1,-1,-1,-1,-1,-1,-1,-1,-1,-1,-1,-1,-1,-1,-1,-1,-1,-1,-1,-1,-1,-1,-1,-1,-1,-1,-1,-1,-1,-1,-1,-1,-1,-1,-1,-1,-1,-1,-1,-1,-1,-1,-1,-1,-1,-1,-1,-1,-1,-1,-1,-1,-1,-1,-1,-1,-1,-1,-1,-1,-1,-1,-1,-1,-1,-1,-1,-1,-1,-1,-1,-1,-1,-1,-1,-1,-1,-1,-1,-1,-1,-1,-1,-1,-1,-1,-1,-1,-1,-1,-1,-1,-1,-1,-1,-1,-1,-1],"loss_changes":[9.106289E0,8.4441805E0,6.1686244E0,5.887559E0,4.58438E0,6.1748424E0,4.111492E0,4.8751507E0,2.3226686E0,4.5065975E0,6.886918E0,2.8860927E0,6.081547E0,4.225233E0,5.8554955E0,4.5468125E0,0E0,1.7250873E0,3.084569E0,3.4969625E0,2.3132486E0,7.649187E0,1.1233843E1,5.5226955E0,4.103359E0,2.7691813E0,0E0,1.3327914E0,0E0,3.8777542E0,4.0062695E0,6.8061695E0,3.3542385E0,0E0,0E0,0E0,5.3540545E0,3.108282E0,5.472796E-1,9.662714E-1,0E0,5.7228284E0,1.5959692E0,1.6275511E0,3.5085793E0,5.3421464E0,1.974937E0,3.5352173E0,4.29195E0,0E0,0E0,1.2073168E0,7.8764486E-1,1.1614094E0,1.666296E0,0E0,1.4869268E0,5.4006934E0,4.6001573E0,1.8489618E0,7.6494775E0,1.234716E0,0E0,3.1595025E0,5.369315E0,0E0,0E0,0E0,5.3065777E-1,3.2792568E0,4.3163843E0,3.5966334E0,2.59303E0,3.9999962E-1,3.0521421E0,6.3025703E0,3.5021276E0,1.5619268E0,3.6024632E0,3.6553073E0,1.8267839E0,2.9742556E0,1.8416299E0,1.5632739E0,2.7911263E0,3.7074625E0,1.8642147E0,0E0,0E0,0E0,3.6174002E0,2.4655886E0,3.1901574E0,1.435529E0,0E0,4.34803E0,4.1204844E0,1.5883703E0,3.1866117E0,0E0,2.4093933E0,0E0,2.9148326E0,0E0,0E0,3.0917702E0,5.3885765E0,2.5550528E0,3.684607E-1,1.709404E0,1.5659342E0,2.225134E0,9.843216E-1,0E0,4.1305633E0,1.426961E0,0E0,0E0,0E0,0E0,0E0,1.6728947E0,0E0,9.374449E0,4.645766E0,1.2298925E0,2.943965E0,0E0,0E0,0E0,0E0,3.7936144E0,0E0,1.4150183E0,4.781425E-1,0E0,9.703827E-2,1.1379445E0,1.4925289E0,2.312223E0,0E0,3.4999495E0,1.0569992E1,4.8954654E-1,1.8613093E0,0E0,2.217279E0,0E0,0E0,1.4883075E0,3.4356375E0,0E0,2.2029395E0,1.6212461E0,0E0,3.1955984E0,0E0,1.071003E0,1.7900716E0,2.472971E0,0E0,1.3514953E0,3.0392568E0,5.067229E-1,1.7142857E0,0E0,3.4854572E0,2.7282233E0,4.628129E-1,0E0,0E0,0E0,1.9877038E0,0E0,3.4084386E-1,0E0,0E0,0E0,0E0,2.2578197E0,0E0,0E0,0E0,2.1518526E0,0E0,2.640913E0,3.6043992E0,1.9852943E0,0E0,7.77464E0,0E0,4.8877945E0,2.6195025E0,1.5834585E0,0E0,9.18648E0,2.9951277E0,0E0,0E0,1.7369813E0,8.83354E-1,0E0,0E0,0E0,0E0,3.404884E0,4.4204082E0,1.913795E0,8.879121E-1,3.398616E-1,0E0,3.952702E0,5.6707916E0,4.322654E0,2.3830266E0,0E0,6.253762E-1,0E0,0E0,0E0,9.6774197E-1,1.6187787E0,1.8070688E0,0E0,2.7147894E0,0E0,0E0,2.42594E-1,2.1343791E0,1.6909237E0,5.979196E0,1.2260342E0,2.1190095E-1,9.598067E-1,0E0,0E0,0E0,0E0,0E0,3.7763023E-1,1.2440652E0,0E0,0E0,0E0,0E0,1.4397256E0,5.7036195E0,9.427715E0,4.0258036E0,7.989311E-1,0E0,0E0,0E0,0E0,0E0,4.170275E0,6.2350054E0,2.1995518E0,2.9117904E0,4.382118E0,3.5523033E0,2.8486782E-1,3.0650303E0,0E0,0E0,0E0,3.1198525E0,3.6971822E0,3.3842936E0,2.55062E0,5.0043592E0,0E0,0E0,4.5686407E0,0E0,4.001007E0,5.8240833E0,0E0,0E0,0E0,0E0,2.8106813E0,4.189184E0,0E0,0E0,0E0,0E0,0E0,0E0,0E0,0E0,1.1118624E1,5.8788424E0,3.284896E0,2.206702E0,1.3993225E0,0E0,2.5789661E0,1.1073527E0,0E0,0E0,0E0,0E0,0E0,1.7349653E0,0E0,0E0,0E0,0E0,0E0,0E0,0E0,0E0,0E0,0E0,5.151923E0,4.1373396E0,9.0301013E-1,2.4266672E0,0E0,0E0,2.2855086E0,1.5245445E0,0E0,0E0,2.4439032E0,0E0,6.4740443E-1,0E0,1.7055697E0,3.7552114E0,1.5752664E0,0E0,9.180293E-1,0E0,1.677551E0,0E0,6.9395556E0,4.020486E0,2.764474E0,3.013555E0,1.6324911E0,0E0,2.3112814E0,3.915834E0,1.7243874E0,0E0,1.8439023E0,0E0,0E0,0E0,0E0,0E0,3.1754074E0,6.508637E0,2.538847E0,0E0,5.406948E0,5.2282825E0,2.9436672E0,4.1172862E-1,0E0,3.2371993E0,5.3042808E0,0E0,1.9455074E0,2.5350957E0,4.264673E0,3.2591753E0,0E0,0E0,2.748821E0,0E0,2.6251152E0,3.2944813E0,5.5650835E0,4.4526825E0,3.9852972E0,2.8962526E0,1.2554114E0,2.2968442E0,0E0,0E0,3.346971E0,4.042572E0,0E0,0E0,3.1665664E0,3.2140656E0,0E0,0E0,0E0,3.03482E0,0E0,0E0,0E0,0E0,0E0,0E0,0E0,0E0,7.9196906E-1,0E0,0E0,0E0,0E0,0E0,4.1744742E0,4.1665764E0,2.3218517E0,7.8802648E0,0E0,1.3632089E0,0E0,0E0,3.8165026E0,5.874477E0,2.1612937E0,0E0,3.3233638E0,4.2566986E0,4.4488173E0,2.9650292E0,0E0,1.4946556E0,2.4649737E0,7.5358763E0,2.82513E0,4.970826E0,2.584559E0,6.589944E-1,0E0,0E0,2.0107663E0,5.5459976E0,0E0,2.7102695E0,0E0,0E0,9.548869E-1,4.161045E0,0E0,5.656566E-1,4.7713995E0,2.9863453E0,0E0,0E0,0E0,3.0611675E0,1.1509887E1,4.0939255E0,1.0564802E1,4.584982E0,3.0195618E0,0E0,4.5605307E0,1.613425E0,4.9431677E0,4.010993E0,0E0,2.1290474E0,3.2006605E0,2.5645761E0,3.7034702E-1,3.4001126E0,3.6033678E0,0E0,1.0825171E0,3.2806485E0,2.960846E0,5.1101694E0,0E0,0E0,2.1838236E0,5.6836357E0,2.023091E0,2.0817645E0,2.095811E0,0E0,0E0,0E0,2.3763745E0,0E0,1.7207551E0,2.3498437E0,0E0,0E0,0E0,0E0,0E0,0E0,0E0,0E0,0E0,0E0,0E0,0E0,0E0,0E0,0E0,0E0,0E0,0E0,0E0,0E0,0E0,0E0,0E0,0E0,0E0,0E0,0E0,0E0,0E0,0E0,0E0,0E0,0E0,0E0,0E0,0E0,0E0,0E0,0E0,0E0,0E0,0E0,0E0,0E0,0E0,0E0,0E0,0E0,0E0,0E0,0E0,0E0,0E0,0E0,0E0,0E0,0E0,0E0,0E0,0E0,0E0,0E0,0E0,0E0,0E0,0E0,0E0,0E0,0E0,0E0,0E0,0E0,0E0,0E0,0E0,0E0,0E0,0E0,0E0,0E0,0E0,0E0,0E0,0E0,0E0,0E0,0E0,0E0,0E0,0E0,0E0,0E0,0E0,0E0,0E0,0E0,0E0,0E0,0E0,0E0,0E0,0E0,0E0,0E0,0E0,0E0,0E0,0E0,0E0,0E0,0E0,0E0,0E0,0E0],"parents":[2147483647,0,0,1,1,2,2,3,3,4,4,5,5,6,6,7,7,8,8,9,9,10,10,11,11,12,12,13,13,14,14,15,15,17,17,18,18,19,19,20,20,21,21,22,22,23,23,24,24,25,25,27,27,29,29,30,30,31,31,32,32,36,36,37,37,38,38,39,39,41,41,42,42,43,43,44,44,45,45,46,46,47,47,48,48,51,51,52,52,53,53,54,54,56,56,57,57,58,58,59,59,60,60,61,61,63,63,64,64,68,68,69,69,70,70,71,71,72,72,73,73,74,74,75,75,76,76,77,77,78,78,79,79,80,80,81,81,82,82,83,83,84,84,85,85,86,86,90,90,91,91,92,92,93,93,95,95,96,96,97,97,98,98,100,100,102,102,105,105,106,106,107,107,108,108,109,109,110,110,111,111,112,112,114,114,115,115,121,121,123,123,124,124,125,125,126,126,131,131,133,133,134,134,136,136,137,137,138,138,139,139,141,141,142,142,143,143,144,144,146,146,149,149,150,150,152,152,153,153,155,155,157,157,158,158,159,159,161,161,162,162,163,163,164,164,166,166,167,167,168,168,172,172,174,174,179,179,183,183,185,185,186,186,187,187,189,189,191,191,192,192,193,193,195,195,196,196,199,199,200,200,205,205,206,206,207,207,208,208,209,209,211,211,212,212,213,213,214,214,216,216,220,220,221,221,222,222,224,224,227,227,228,228,229,229,230,230,231,231,232,232,233,233,239,239,240,240,245,245,246,246,247,247,248,248,249,249,255,255,256,256,257,257,258,258,259,259,260,260,261,261,262,262,266,266,267,267,268,268,269,269,270,270,273,273,275,275,276,276,281,281,282,282,291,291,292,292,293,293,294,294,295,295,297,297,298,298,304,304,315,315,316,316,317,317,318,318,321,321,322,322,325,325,327,327,329,329,330,330,331,331,333,333,335,335,337,337,338,338,339,339,340,340,341,341,343,343,344,344,345,345,347,347,353,353,354,354,355,355,357,357,358,358,359,359,360,360,362,362,363,363,365,365,366,366,367,367,368,368,371,371,373,373,374,374,375,375,376,376,377,377,378,378,379,379,380,380,383,383,384,384,387,387,388,388,392,392,401,401,407,407,408,408,409,409,410,410,412,412,415,415,416,416,417,417,419,419,420,420,421,421,422,422,424,424,425,425,426,426,427,427,428,428,429,429,430,430,433,433,434,434,436,436,439,439,440,440,442,442,443,443,444,444,448,448,449,449,450,450,451,451,452,452,453,453,455,455,456,456,457,457,458,458,460,460,461,461,462,462,463,463,464,464,465,465,467,467,468,468,469,469,470,470,473,473,474,474,475,475,476,476,477,477,481,481,483,483,484,484],"right_children":[2,4,6,8,10,12,14,16,18,20,22,24,26,28,30,32,-1,34,36,38,40,42,44,46,48,50,-1,52,-1,54,56,58,60,-1,-1,-1,62,64,66,68,-1,70,72,74,76,78,80,82,84,-1,-1,86,88,90,92,-1,94,96,98,100,102,104,-1,106,108,-1,-1,-1,110,112,114,116,118,-1,122,124,126,128,130,132,134,136,138,140,142,144,146,-1,-1,-1,148,150,152,154,-1,156,158,160,162,-1,164,-1,166,-1,-1,168,170,172,-1,176,178,180,182,-1,184,186,-1,-1,-1,-1,-1,188,-1,190,192,194,196,-1,-1,-1,-1,198,-1,200,202,-1,-1,206,208,210,-1,212,214,216,218,-1,220,-1,-1,222,224,-1,226,228,-1,230,-1,232,234,236,-1,238,240,242,244,-1,246,248,250,-1,-1,-1,252,-1,-1,-1,-1,-1,-1,256,-1,-1,-1,258,-1,260,262,264,-1,266,-1,268,270,272,-1,274,276,-1,-1,278,280,-1,-1,-1,-1,282,284,286,288,-1,-1,292,294,296,298,-1,300,-1,-1,-1,302,304,306,-1,308,-1,-1,-1,312,314,316,318,-1,322,-1,-1,-1,-1,-1,-1,326,-1,-1,-1,-1,328,330,332,334,336,-1,-1,-1,-1,-1,338,340,342,344,346,348,-1,352,-1,-1,-1,354,356,358,360,362,-1,-1,364,-1,366,368,-1,-1,-1,-1,370,372,-1,-1,-1,-1,-1,-1,-1,-1,374,376,378,380,382,-1,384,386,-1,-1,-1,-1,-1,388,-1,-1,-1,-1,-1,-1,-1,-1,-1,-1,390,392,394,396,-1,-1,398,400,-1,-1,402,-1,404,-1,406,408,410,-1,412,-1,414,-1,416,418,420,422,424,-1,426,428,430,-1,432,-1,-1,-1,-1,-1,434,436,438,-1,440,442,444,446,-1,448,450,-1,452,454,456,458,-1,-1,460,-1,462,464,466,468,470,472,474,476,-1,-1,478,480,-1,-1,482,484,-1,-1,-1,486,-1,-1,-1,-1,-1,-1,-1,-1,488,-1,-1,-1,-1,-1,490,492,494,496,-1,498,-1,-1,500,502,504,-1,506,508,510,512,-1,514,516,518,520,522,524,526,-1,-1,528,530,-1,532,-1,-1,534,536,-1,538,540,542,-1,-1,-1,544,546,548,550,552,554,-1,556,558,560,562,-1,564,566,568,-1,572,574,-1,576,578,580,582,-1,-1,584,586,588,590,592,-1,-1,-1,594,-1,596,598,-1,-1,-1,-1,-1,-1,-1,-1,-1,-1,-1,-1,-1,-1,-1,-1,-1,-1,-1,-1,-1,-1,-1,-1,-1,-1,-1,-1,-1,-1,-1,-1,-1,-1,-1,-1,-1,-1,-1,-1,-1,-1,-1,-1,-1,-1,-1,-1,-1,-1,-1,-1,-1,-1,-1,-1,-1,-1,-1,-1,-1,-1,-1,-1,-1,-1,-1,-1,-1,-1,-1,-1,-1,-1,-1,-1,-1,-1,-1,-1,-1,-1,-1,-1,-1,-1,-1,-1,-1,-1,-1,-1,-1,-1,-1,-1,-1,-1,-1,-1,-1,-1,-1,-1,-1,-1,-1,-1,-1,-1,-1,-1,-1,-1],"split_conditions":[2.5E0,4.1525E1,9.6615005E1,4.1215E1,4.8705E1,9.6315E1,6.5E0,4.1155E1,5E-1,4.8434998E1,5.4145E1,3.0974998E1,1.45E1,9.9575E1,2.15E1,3.7125E1,-1.0540541E-1,4.1335E1,4.1285E1,4.8325E1,2.15E1,2.15E1,5.4395E1,3.0275002E1,3.2085E1,9.6435E1,-1.4150944E-1,9.9145004E1,-8.490566E-2,8.5E0,9.7005005E1,3.6455E1,3.7335E1,-3.8461544E-2,4.4444446E-2,1.4285715E-1,1.55E1,4.8035E1,4.8375E1,4.8495003E1,1.5789475E-2,5.1295E1,5.3190002E1,5.4215E1,3.5E0,1.15E1,3.0494999E1,4.5E0,3.2345E1,-6.818182E-2,3.3333335E-2,9.818E1,5E-1,9.7695E1,9.9465E1,8.1818186E-2,9.946E1,3.5875E1,3.6635002E1,4.5E0,3.7375E1,9.5E0,1.20000005E-1,4.7905E1,4.8205E1,7.894737E-2,2.3076925E-2,-1.0909092E-1,4.8585E1,5.1205E1,5.1345E1,5.2895E1,5.3480003E1,-1.20000005E-1,5.4335E1,5E-1,5.4565002E1,3.0125E1,3.0095001E1,3.0395E1,3.0875E1,3.1404999E1,3.1735E1,1.85E1,9.5305E1,5E-1,9.84E1,7.2972976E-2,8.108108E-3,1.2666668E-1,3.5E0,9.9015E1,9.9645004E1,9.8975E1,2.3076925E-2,3.5815002E1,3.6175E1,1.85E1,3.6725E1,1.18181825E-1,3.7225E1,-1.20000005E-1,3.7434998E1,-4.0909093E-2,3.529412E-2,4.7745003E1,1.15E1,8.5E0,9.09091E-3,5E-1,4.8635002E1,5.1155E1,1.15E1,1.16666675E-1,5.4065002E1,5.1475E1,-6.363637E-2,1.35E-1,3.1034485E-2,-7.5E-2,-1.5E-1,1.45E1,-1.22727275E-1,9.922E1,6.2835E1,5.4515E1,6.0045E1,-9.09091E-3,8.333334E-2,8.571429E-3,-1.1785714E-1,3.0335E1,1.4347827E-1,1.25E1,3.5E0,-6.9767446E-3,-1.119403E-1,3.1525002E1,3.1915E1,3.2275E1,1.0000001E-1,9.3075E1,9.5535E1,2.5E0,9.7365005E1,-8.333334E-2,9.868E1,5.4545454E-3,1.212766E-1,9.8805E1,9.9145004E1,1.1886793E-1,1.45E1,9.7895004E1,-9.4736844E-2,3.0125E1,-8.8235304E-2,1.85E1,3.6405E1,1.05E1,-2.6086958E-2,1.15E1,6.5E0,3.7175E1,3.7275E1,8.400001E-2,3.7585E1,4.7325E1,1.95E1,1.1739131E-1,-2.0000001E-2,-1.2857144E-1,5E-1,3.3333335E-2,-4.477612E-3,1.5789475E-2,-7.7142864E-2,-1.1538462E-1,-3.214286E-2,4.9775E1,6.666667E-2,-2.727273E-2,-1.05000004E-1,5.1955E1,9.272727E-2,5.0235E1,5.209E1,5E-1,2.0930234E-2,5.5795E1,1.2666668E-1,5.654E1,7.3505E1,5.4465E1,9.428572E-2,5.9965E1,6.5005005E1,9.4736844E-2,-4.2857148E-2,5E-1,3.0735E1,1.0000001E-1,3.75E-2,-7.7142864E-2,-1.3333334E-1,1.15E1,1.65E1,3.1845001E1,3.2004997E1,-4.3478264E-3,8.5714296E-2,8.9045E1,9.4175E1,1.35E1,9.6195E1,-5.675676E-2,3.5E0,5.8823535E-3,8.644068E-2,5.1219516E-2,3.5E0,9.679E1,5E-1,-9.428572E-2,9.9335E1,-2.857143E-2,6.4705886E-2,-6.1904766E-2,3.5E0,1.25E1,3.0224998E1,3.5975E1,2.647059E-2,1.05E1,6.0000002E-2,-5.0000004E-2,-1.4705883E-1,-8.108108E-3,7.021277E-2,-7.857144E-2,2.15E1,4.5E-2,1.0588236E-1,-4.2857148E-2,4.2857148E-2,1.5E0,3.7695E1,4.7245003E1,2.05E1,1.45E1,-1.875E-2,-9.0697676E-2,-0E0,1.875E-2,-2.3076925E-2,5E-1,5.0045E1,1.85E1,6.5E0,4.9980003E1,1.5E0,-3.2432433E-2,5.2455E1,-1.0588236E-1,-0E0,-1.2105264E-1,8.6835E1,5.5870003E1,2.5E0,7.1945E1,7.4115005E1,6.0000002E-2,-2.5714288E-2,5.9895E1,-1.3636364E-1,2.25E1,6.5815E1,-6.9767446E-3,7.64706E-2,-3.5593223E-2,2.1951219E-2,8.5E0,3.14E1,-3.0000001E-2,9.1836736E-2,-2.1951219E-2,-1.2352942E-1,2.3076925E-2,-4.2857148E-2,1.6666668E-2,-2.4324324E-2,8.8665E1,9.1085E1,9.4055E1,9.4485E1,9.5425E1,3.0612247E-2,9.6055E1,1.05E1,-3.8461544E-2,1.6666668E-2,-0E0,-7.5E-2,7.959184E-2,9.7375E1,2.3076925E-2,1.2352942E-1,5.409836E-2,-5.0000004E-2,-8.1818186E-2,-3.529412E-2,4.666667E-2,-5.294118E-2,7.692308E-3,9.5744684E-2,8.5E0,3.0275002E1,3.5925E1,5E-1,4.2857148E-2,8.108108E-3,5.5E0,1.85E1,-4.883721E-2,-1.0000001E-1,1.75E1,3.4883723E-2,5E-1,8.108108E-3,8.5E0,1.95E1,4.6545E1,-1.3636364E-1,3.5E0,-5.7894737E-2,8.5E0,-1.0588236E-1,1.05E1,4.9705E1,4.9905E1,5.0405E1,5.1415E1,-2.542373E-2,4.5E0,5.2195E1,5E-1,-7.5E-2,5.0645E1,1.5333335E-1,-1.3636365E-2,-5.294118E-2,1.3125001E-1,6.6666673E-3,1.5E0,8.781E1,5.513E1,-9.428572E-2,1.5E0,5.8754997E1,7.009E1,7.282E1,1.3125001E-1,7.4835E1,5.7945E1,7.64706E-2,8.5E0,6.4585E1,1.15E1,6.6765E1,-1.9148936E-2,8.666667E-2,1.55E1,-1.263158E-1,3.3625E1,3.5E0,9.0985E1,9.1235E1,9.3365005E1,9.4115005E1,9.4285E1,1.75E1,9.4736844E-2,2.0625001E-1,9.5975006E1,5E-1,1.5000001E-2,9.375E-2,1.85E1,9.765E1,1.875E-2,-1.3846155E-1,9.512196E-2,1.5E0,6.923077E-2,-0E0,1.5E-1,5.0000004E-2,1.4285715E-2,-8.9189194E-2,3.8709678E-2,-3.4883723E-2,5E-1,-8.5714296E-2,-2.727273E-2,-9.0697676E-2,2.727273E-2,1.2222222E-1,3.9155E1,3.9245003E1,4.6375E1,2.25E1,6.734694E-2,6.5E0,-7.959184E-2,8.571429E-3,5.5E0,4.9125E1,4.8805E1,8.8235304E-2,9.5E0,8.5E0,1.5E0,5.0725E1,-2.727273E-2,5E-1,5.3254997E1,5.3515E1,1.65E1,5.3545E1,4.9325E1,4.9269997E1,9E-2,-0E0,8.5645004E1,5.9434998E1,-1.2545455E-1,1.5E0,-2.857143E-2,7.894737E-2,5.8875E1,5.908E1,1.0000001E-1,6.0515E1,6.8130005E1,7.09E1,-8.1818186E-2,-3.157895E-2,-8.1818186E-2,7.9880005E1,5.7864998E1,5E-1,6.465E1,1.55E1,6.1980003E1,1.05000004E-1,6.5455E1,1.55E1,1.65E1,6.6815E1,6.363637E-2,3.119E1,2.5E0,8.8595E1,-1.0800001E-1,1.25E1,8.9465E1,1.2857144E-1,5E-1,9.2895004E1,1.15E1,9.3595E1,-1.5405406E-1,-2.5714288E-2,5E-1,5E-1,9.5134995E1,1.95E1,5E-1,7.090909E-2,-1.3636364E-1,7.317073E-3,1.25E1,7.1428575E-2,1.35E1,1.05E1,4.924904E-3,-1.2227075E-2,-3.3333335E-2,1.1320755E-2,1.9915702E-2,-6.4644855E-3,3.5856576E-3,5.6065578E-2,-1.2006447E-2,-5.1428575E-2,-7.2580646E-3,1.212766E-1,-3.0000001E-2,3.1034485E-2,3.1034485E-2,1.4482759E-1,-8.275862E-2,4.520548E-2,3.3333335E-2,-2.6600985E-2,-8.9189194E-2,2.830189E-2,-1.8367348E-2,-1.3636364E-1,5.060241E-2,-2.7777778E-2,-4.3933056E-2,-0E0,1.4018692E-2,5.8851678E-2,1.764706E-2,-3.9622642E-2,-9.5604405E-2,7.5E-2,-6.122449E-3,-1.0000001E-1,3.3027526E-2,-1.6935484E-2,1.4117648E-1,1.764706E-2,-1.764706E-2,4.054054E-2,-1.3253012E-2,6.0000002E-2,1.032787E-1,6.382979E-3,-1.6483518E-3,-4.6031747E-2,7.377049E-2,2.1951219E-2,5.294118E-2,2.0666668E-1,-0E0,-5.454546E-2,5.8823535E-3,-7.777778E-2,1.10526316E-1,-6.9767446E-3,4.32E-2,6.134372E-3,-8.929365E-3,1.18181825E-1,-1.19631905E-2,-4.537445E-2,-2.3796035E-2,1.10526316E-1,1.7120281E-2,-9.919572E-3,5.905512E-2,-1.6759777E-3,-2.727273E-2,-1.18181825E-1,1.3513514E-2,-3.0508475E-2,3.6061384E-2,-1.807229E-2,-1.0540541E-1,-6.5246457E-3,6.9767446E-3,-9.428572E-2,6.0000002E-2,-2.3076925E-2,1.655924E-3,7.333334E-2,-1.3404256E-1,-7.894737E-2,-7.5E-2,3.0612247E-2,5.8407083E-2,1.5523466E-2,-1.05000004E-1,-3.1914897E-2,-2.461899E-3,5.327103E-2,-1.10958904E-1,-2.9411767E-2,3.6170214E-2,-3.4883723E-2,5.6250002E-2,-5.294118E-2,-2.4E-2,1.12500004E-1,-5.217391E-3,-6.3380286E-2,8.9189194E-2,3.448276E-3,1.6800001E-2,-3.8095243E-2,2.3076925E-2,-5.2173916E-2,2.5714288E-2,1.1886793E-1,7.1428575E-2,6.7669176E-3],"split_indices":[2,4,4,4,4,4,3,4,2,4,4,4,3,4,3,4,0,4,4,4,3,3,4,4,4,4,0,4,0,3,4,4,4,0,0,0,3,4,4,4,0,4,4,4,3,3,4,3,4,0,0,4,1,4,4,0,4,4,4,3,4,3,0,4,4,0,0,0,4,4,4,4,4,4,4,1,4,4,4,4,4,4,4,3,4,1,4,0,0,0,2,4,4,4,0,4,4,3,4,0,4,0,4,0,0,4,3,3,4,1,4,4,3,0,4,4,0,0,0,2147483647,2147483647,3,0,4,4,4,4,0,0,0,0,4,0,3,2,0,2,4,4,4,0,4,4,3,4,0,4,0,0,4,4,0,3,4,0,4,0,3,4,3,0,3,3,4,4,0,4,4,3,0,0,0,1,2147483647,2147483647,0,0,0,0,4,0,0,0,4,0,4,4,1,0,4,0,4,4,4,0,4,4,0,0,1,4,0,0,2147483647,2147483647,3,3,4,4,3,0,4,4,3,4,0,2,0,0,0,3,4,1,0,4,0,0,4,2,3,4,4,4,3,0,0,0,0,0,4,3,0,0,0,0,2,4,4,3,3,0,0,0,2147483647,2147483647,2,4,3,3,4,2,4,4,0,0,0,4,4,3,4,4,0,0,4,0,3,4,0,0,0,0,3,4,0,0,0,0,0,0,2147483647,2147483647,4,4,4,4,4,0,4,3,0,0,0,0,0,4,0,0,0,0,2147483647,2147483647,0,0,0,0,3,4,4,2,2147483647,2147483647,3,3,2147483647,2147483647,3,0,2,0,3,3,4,0,3,0,3,0,3,4,4,4,4,0,3,4,1,0,4,0,2147483647,2147483647,0,0,2,4,4,0,2,4,4,4,0,4,4,0,3,4,3,4,0,0,3,0,4,2,4,4,4,4,4,3,0,0,4,1,0,0,3,4,0,0,0,2,0,0,0,0,0,0,0,0,2,0,0,0,0,0,4,4,4,3,0,3,0,0,3,4,4,0,3,3,2,4,0,2,4,4,3,4,4,4,0,0,4,4,0,2,0,0,4,4,0,4,4,4,0,0,0,4,4,1,4,3,4,0,4,3,3,4,0,4,3,4,3,3,4,0,1,4,3,4,0,0,1,1,4,3,1,0,0,0,3,0,3,3,0,0,0,0,0,0,0,0,0,0,0,0,0,0,0,0,0,0,0,0,0,0,0,0,0,0,0,0,0,0,0,0,0,0,0,0,0,0,0,0,0,0,0,0,0,0,0,0,0,0,0,0,0,0,0,0,0,0,0,0,0,0,0,0,0,0,0,0,0,0,0,0,0,0,0,0,0,0,0,0,0,0,0,0,2147483647,2147483647,0,0,0,0,0,0,0,0,0,0,0,0,0,0,0,0,0,0,0,0,0,0,0,0,0,0,0,0],"split_type":[0,0,0,0,0,0,0,0,0,0,0,0,0,0,0,0,0,0,0,0,0,0,0,0,0,0,0,0,0,0,0,0,0,0,0,0,0,0,0,0,0,0,0,0,0,0,0,0,0,0,0,0,0,0,0,0,0,0,0,0,0,0,0,0,0,0,0,0,0,0,0,0,0,0,0,0,0,0,0,0,0,0,0,0,0,0,0,0,0,0,0,0,0,0,0,0,0,0,0,0,0,0,0,0,0,0,0,0,0,0,0,0,0,0,0,0,0,0,0,0,0,0,0,0,0,0,0,0,0,0,0,0,0,0,0,0,0,0,0,0,0,0,0,0,0,0,0,0,0,0,0,0,0,0,0,0,0,0,0,0,0,0,0,0,0,0,0,0,0,0,0,0,0,0,0,0,0,0,0,0,0,0,0,0,0,0,0,0,0,0,0,0,0,0,0,0,0,0,0,0,0,0,0,0,0,0,0,0,0,0,0,0,0,0,0,0,0,0,0,0,0,0,0,0,0,0,0,0,0,0,0,0,0,0,0,0,0,0,0,0,0,0,0,0,0,0,0,0,0,0,0,0,0,0,0,0,0,0,0,0,0,0,0,0,0,0,0,0,0,0,0,0,0,0,0,0,0,0,0,0,0,0,0,0,0,0,0,0,0,0,0,0,0,0,0,0,0,0,0,0,0,0,0,0,0,0,0,0,0,0,0,0,0,0,0,0,0,0,0,0,0,0,0,0,0,0,0,0,0,0,0,0,0,0,0,0,0,0,0,0,0,0,0,0,0,0,0,0,0,0,0,0,0,0,0,0,0,0,0,0,0,0,0,0,0,0,0,0,0,0,0,0,0,0,0,0,0,0,0,0,0,0,0,0,0,0,0,0,0,0,0,0,0,0,0,0,0,0,0,0,0,0,0,0,0,0,0,0,0,0,0,0,0,0,0,0,0,0,0,0,0,0,0,0,0,0,0,0,0,0,0,0,0,0,0,0,0,0,0,0,0,0,0,0,0,0,0,0,0,0,0,0,0,0,0,0,0,0,0,0,0,0,0,0,0,0,0,0,0,0,0,0,0,0,0,0,0,0,0,0,0,0,0,0,0,0,0,0,0,0,0,0,0,0,0,0,0,0,0,0,0,0,0,0,0,0,0,0,0,0,0,0,0,0,0,0,0,0,0,0,0,0,0,0,0,0,0,0,0,0,0,0,0,0,0,0,0,0,0,0,0,0,0,0,0,0,0,0,0,0,0,0,0,0,0,0,0,0,0,0,0,0,0,0,0,0,0,0,0,0,0,0,0,0,0,0,0,0,0,0,0,0,0,0,0,0,0,0,0,0,0,0,0,0,0,0,0,0,0],"sum_hessian":[2.25E4,1.352525E4,8.97475E3,2.21825E3,1.1307E4,8.535E3,4.3975E2,2.1585E3,5.975E1,1.3845E3,9.9225E3,8.50025E3,3.475E1,1.11E2,3.2875E2,2.15025E3,8.25E0,2.125E1,3.85E1,1.328E3,5.65E1,1.06925E3,8.85325E3,1.215E2,8.37875E3,2.25E1,1.225E1,9.875E1,1.225E1,2.7175E2,5.7E1,1.3565E3,7.9375E2,8.75E0,1.25E1,9.5E0,2.9E1,1.31075E3,1.725E1,4.8E1,8.5E0,9.3725E2,1.32E2,4.875E1,8.8045E3,3.6E1,8.55E1,1.3825E2,8.2405E3,1E1,1.25E1,8.225E1,1.65E1,3.375E1,2.38E2,7.25E0,4.975E1,1.224E3,1.325E2,4.275E1,7.51E2,1.75E1,1.15E1,1.2515E3,5.925E1,8.5E0,8.75E0,1E1,3.8E1,4.62E2,4.7525E2,1.095E2,2.25E1,1.4E1,3.475E1,1.10125E3,7.70325E3,1.525E1,2.075E1,2.675E1,5.875E1,2.55E1,1.1275E2,3.6E1,8.2045E3,5.05E1,3.175E1,8.25E0,8.25E0,1.025E1,2.35E1,2.045E2,3.35E1,4.1E1,8.75E0,1.11675E3,1.0725E2,3.625E1,9.625E1,7.25E0,3.55E1,9E0,7.42E2,1E1,7.5E0,1.227E3,2.45E1,3.55E1,2.375E1,1.625E1,2.175E1,4.4575E2,1.625E1,8E0,4.6725E2,1.0225E2,7.25E0,9E0,1.35E1,7E0,7E0,2.475E1,1E1,5.4725E2,5.54E2,2.575E1,7.6775E3,7.25E0,8E0,7.75E0,1.3E1,1.625E1,1.05E1,4.45E1,1.425E1,9.75E0,1.575E1,7.95E1,3.325E1,2.575E1,1.025E1,8.07175E3,1.3275E2,2.5E1,2.55E1,8E0,2.375E1,1.275E1,1.075E1,1.745E2,3E1,1.225E1,2.125E1,3.25E1,8.5E0,1.105E3,1.175E1,5.625E1,5.1E1,2.575E1,1.05E1,1.9E1,7.725E1,1.65E1,1.9E1,1.15E1,7.305E2,1.1935E3,3.35E1,1.05E1,1.4E1,1.475E1,2.075E1,8E0,1.575E1,8.5E0,7.75E0,8.75E0,1.3E1,4.3775E2,8E0,7.25E0,9E0,4.545E2,1.275E1,6.75E1,3.475E1,1.5E1,9.75E0,5.37E2,1.025E1,1.0375E2,4.5025E2,1.8E1,7.75E0,9.33E2,6.7445E3,8.5E0,7.75E0,2.15E1,2.3E1,7.25E0,7E0,7.75E0,8E0,5.425E1,2.525E1,1.675E1,1.65E1,1.625E1,9.5E0,7.773E3,2.9875E2,2.675E1,1.06E2,8.25E0,1.675E1,1.175E1,1.375E1,9.25E0,1.45E1,1.5825E2,1.625E1,7.75E0,2.225E1,9.5E0,1.175E1,1.475E1,1.775E1,1.95E1,1.0855E3,4.025E1,1.6E1,4.2E1,9E0,1.4E1,1.175E1,8.25E0,1.075E1,2E1,5.725E1,9E0,7.5E0,9.5E0,9.5E0,2.525E1,7.0525E2,1.11025E3,8.325E1,2.65E1,7E0,9.75E0,1.1E1,7E0,8.75E0,1.805E2,2.5725E2,9.8E1,3.565E2,3.775E1,2.975E1,1.75E1,1.725E1,7.5E0,7.5E0,1.325E1,5.2375E2,2.575E1,7.8E1,1.1875E2,3.315E2,1.025E1,7.75E0,9.2025E2,1.275E1,8.3475E2,5.90975E3,9.75E0,1.175E1,1.375E1,9.25E0,2.1E1,3.325E1,1.4E1,1.125E1,9.25E0,7.5E0,8.75E0,7.75E0,8E0,8.25E0,7.24175E3,5.3125E2,1.555E2,1.4325E2,1.55E1,1.125E1,9E1,1.6E1,8.75E0,8E0,7.5E0,7E0,1.125E1,1.47E2,8.75E0,7.5E0,1.425E1,8E0,7.25E0,7.5E0,1.025E1,7.5E0,8.75E0,1.075E1,1.9E1,1.0665E3,1.625E1,2.4E1,7.75E0,8.25E0,1.775E1,2.425E1,9.75E0,1.025E1,4.75E1,9.75E0,1.7E1,8.25E0,1.975E1,6.855E2,1.0975E3,1.275E1,7E1,1.325E1,1.9E1,7.5E0,5.775E1,1.2275E2,5E1,2.0725E2,8.425E1,1.375E1,1E2,2.565E2,3.075E1,7E0,1.95E1,1.025E1,1E1,7.5E0,7E0,1.025E1,3.7475E2,1.49E2,1.8E1,7.75E0,5.15E1,2.65E1,1.0025E2,1.85E1,7E0,3.245E2,9.085E2,1.175E1,7.5125E2,8.35E1,1.35E2,5.77475E3,1.075E1,1.025E1,2.475E1,8.5E0,7.1915E3,5.025E1,2.735E2,2.5775E2,1.395E2,1.6E1,4.1E1,1.0225E2,8.5E0,7E0,7.35E1,1.65E1,9E0,7E0,4.675E1,1.0025E2,7E0,1.2E1,9.25E0,1.05725E3,8.75E0,7.5E0,1E1,1.4E1,9.5E0,8.25E0,1.45E1,9.75E0,3.8E1,9.5E0,7.25E0,9.75E0,7.25E0,1.25E1,5.485E2,1.37E2,9.6375E2,1.3375E2,1.125E1,5.875E1,1.125E1,7.75E0,2.7E1,3.075E1,1.1525E2,7.5E0,2.05E1,2.95E1,6.65E1,1.4075E2,7.25E0,7.7E1,7.125E1,2.875E1,3.3E1,2.235E2,1.5E1,1.575E1,9E0,1.05E1,2.5575E2,1.19E2,1.275E1,1.3625E2,9.5E0,8.5E0,3.375E1,1.775E1,9.5E0,1.7E1,8.2E1,1.825E1,1E1,8.5E0,7.25E0,3.1725E2,5.7725E2,3.3125E2,1.8875E2,5.625E2,7.45E1,9E0,5.025E1,8.475E1,1.58E2,5.61675E3,7.25E0,1.75E1,1.62E2,7.0295E3,2.4E1,2.625E1,2.6225E2,1.125E1,1.975E1,2.38E2,4.175E1,9.775E1,8.25E0,7.75E0,1.45E1,2.65E1,7.325E1,2.9E1,6.075E1,1.275E1,7.25E0,9.25E0,3.725E1,9.5E0,2E1,8.025E1,7.1475E2,3.425E2,1.25E1,2.55E1,2.3625E2,3.1225E2,6.175E1,7.525E1,9.2975E2,3.4E1,1.23E2,1.075E1,9E0,4.975E1,1.35E1,1.35E1,1.35E1,1.725E1,1.475E1,1.005E2,8.25E0,1.225E1,1.125E1,1.825E1,4.05E1,2.6E1,5.875E1,8.2E1,2.575E1,5.125E1,4.575E1,2.55E1,2.175E1,7E0,2.35E1,9.5E0,1.625E2,6.1E1,7.5E0,7.5E0,7.5E0,8.25E0,2.48E2,7.75E0,1.425E1,1.0475E2,9E1,4.625E1,1.425E1,1.95E1,7.5E0,1.025E1,7E0,1E1,6.275E1,1.925E1,8.5E0,9.75E0,6.15E1,2.5575E2,5.6175E2,1.55E1,1.62E2,1.6925E2,1.755E2,1.325E1,2.8375E2,2.7875E2,3.075E1,4.375E1,2.65E1,2.375E1,2.675E1,5.8E1,9.675E1,6.125E1,8.25E0,5.6085E3,9.75E0,7.75E0,1.025E1,1.5175E2,7.01925E3,1.025E1,1.075E1,1.325E1,1.5E1,1.125E1,5.55E1,2.0675E2,9E0,1.075E1,2.1225E2,2.575E1,1.725E1,2.45E1,3.425E1,6.35E1,7E0,7.5E0,1.15E1,1.5E1,5.65E1,1.675E1,8.25E0,2.075E1,3.025E1,3.05E1,1.525E1,2.2E1,7.75E0,1.225E1,1.475E1,6.55E1],"tree_param":{"num_deleted":"20","num_feature":"6","num_nodes":"599","size_leaf_vector":"0"}},{"base_weights":[-8.091612E-3,-2.2047944E-2,1.2939838E-2,-1.7448751E-2,-1.3083506E-1,7.801713E-3,1.1251227E-1,3.493725E-2,-2.8217662E-2,-1.6863401E-1,1.6571794E-1,9.382906E-3,-3.4210685E-1,2.0398743E-1,-2.1697691E-1,-4.3461327E-2,8.867752E-2,1.0485811E-1,-3.1459387E-2,-1.5259536E-1,-1.0533339E0,3.249847E-1,-8.4977984E-1,1.0351296E-2,-3.55881E-1,-5.09145E-1,2.0275919E-1,8.207786E-2,2.5907436E-1,6.981351E-1,-3.135628E-1,7.618468E-2,-1.0767247E-1,1.898355E-1,4.1713476E-2,-1.6787127E-1,1.5055324E-1,-4.59828E-2,-7.5801765E-3,-7.504024E-1,-1.3793549E-1,4.5330014E-2,8.934652E-1,-3.0159943E-2,1.8688925E-2,9.682676E-2,-6.941775E-1,-3.260239E-1,-8.79759E-1,1.7827757E-1,-3.9828163E-1,9.412976E-1,1.8854702E-1,-4.2129207E-1,2.3735966E-1,-5.1772196E-2,1.8616964E-1,-2.7088925E-1,-5.348809E-2,1.4002985E-1,4.568797E-1,-1.6950373E-1,7.766377E-2,-3.9952385E-1,3.227934E-1,3.2616115E-1,5.7962634E-2,-3.4279577E-2,-1.1263152E-1,-7.329856E-1,-4.2341338E-3,-3.6943138E-1,-1.0374481E-1,7.4741846E-1,-1.609579E-1,1.2954665E0,4.8297074E-1,-1.1985141E-2,-2.2530483E-1,1.1511625E-2,9.6020006E-2,-5.5287296E-1,1.0528685E-1,4.256922E-1,-3.5607427E-2,-5.7635576E-1,-1.4613482E-1,7.423416E-1,1.1698238E0,1.1559203E-1,3.172464E-1,-1.8559925E-1,-5.8094084E-1,-5.2696186E-1,5.2727904E-2,4.397563E-1,6.487333E-2,-1.0800133E-1,-5.525572E-1,3.2714656E-1,-8.704675E-2,2.7770033E-1,-2.6150042E-4,7.938558E-1,2.1560948E-1,-7.248091E-1,-1.0999182E-1,-5.3040374E-2,1.4219981E-1,-3.7946783E-2,-6.000089E-1,1.487476E-1,5.2046883E-1,-8.657402E-1,1.438467E-1,-2.6982056E-2,-2.066168E-1,-1.2417318E-1,2.5851995E-1,-4.377611E-1,-9.206158E-1,-3.4521483E-2,3.48162E-2,-5.392054E-1,1.3109799E-1,1.0829127E-1,-1.8692075E-1,-5.2773124E-1,1.9294913E-1,3.1917665E-2,-1.0104152E-1,-6.962154E-1,-8.9136824E-2,1.5270963E-2,-2.2380109E-1,-2.9572582E-1,1.2923986E-1,-3.0219167E-1,5.967017E-1,2.3416957E-1,-4.1174406E-1,2.298586E-1,-1.3413495E-1,2.2152604E-1,7.465285E-1,2.0219344E-1,-3.9876044E-1,-2.5739053E-1,-7.338343E-1,-2.4490407E-1,-1.0264059E0,2.1340665E-1,-3.7769687E-1,6.929478E-1,1.1073477E-1,3.93265E-1,-1.9447124E-2,-5.125356E-3,-5.4811406E-1,-1.91473E-1,-7.1299887E-1,-3.8275137E-3,6.4055246E-1,-2.7170787E-2,-2.6221249E-1,1.4376675E-1,6.12342E-1,-1.7729966E-1,1.4392541E-1,2.183987E-1,1.0277048E0,3.3160545E-2,5.921109E-1,1.8208958E-1,-1.8244925E-1,-1.8647556E-1,9.716192E-2,4.5921618E-1,1.1011387E-1,-7.700706E-1,-3.4929377E-1,-4.3601102E-1,3.036863E-1,7.8779584E-1,3.899032E-1,-1.9275706E-1,1.9368288E-1,-4.920383E-2,1.4701144E-2,-2.8319207E-1,2.4921875E-1,2.83028E-1,-1.3292901E-1,-1.2446632E-1,8.7719584E-1,-2.1239636E-2,-2.9848695E-1,3.0777636E-1,9.40752E-3,9.055021E-2,-7.2175056E-1,2.9073694E-1,-5.4135192E-2,-3.7558164E-2,4.7748393E-1,-9.2084065E-2,-3.0494592E-1,4.7546148E-1,-1.12263426E-1,5.509768E-2,-2.7944076E-1,3.7171435E-1,-1.379827E-1,-1.1594425E0,-3.2974645E-1,3.644885E-1,-1.456157E-1,-3.893961E-1,1.6596805E-2,-3.4301654E-1,3.7678933E-1,-1.0185592E-1,-7.569222E-1,2.1181197E-1,4.2517774E-2,3.8232902E-1,9.4774526E-1,-3.9154634E-1,5.134509E-1,-8.212105E-1,-1.285684E-1,6.732495E-1,1.7638946E-1,3.314376E-1,-2.5732878E-1,5.215094E-3,4.6605867E-1,-8.3575195E-1,9.7195216E-2,-3.1493023E-1,-1.6860414E-1,-1.0618181E0,-5.195699E-1,-4.7769794E-1,6.2452182E-2,2.8820837E-1,-5.5167913E-1,-5.647626E-1,3.8265243E-2,3.5040125E-1,1.4510583E0,7.494233E-1,-3.8379428E-1,6.368879E-1,1.9384645E-1,-5.4381824E-1,6.4693995E-2,-6.262069E-2,4.1014433E-1,-8.39853E-1,-1.3175662E-1,1.0922248E-1,-5.13248E-1,-9.323318E-1,1.19192936E-1,7.7675056E-1,-5.7579535E-1,2.9448307E-1,8.373348E-1,4.5357633E-2,-2.0661877E-1,-4.9577105E-1,2.633043E-2,3.5239688E-1,-2.022564E-2,4.2487717E-1,1.1340386E0,5.218426E-2,-4.2172587E-1,3.2138357E-1,-2.36673E-1,1.2050766E0,6.559305E-1,6.551946E-1,-2.557425E-1,-7.41491E-2,4.848018E-1,-6.234974E-1,-1.1538326E-1,3.3420143E-1,-2.2184883E-1,2.797136E-1,-1.7261423E-1,8.4839535E-1,1.1905898E-1,3.9013434E-2,2.2601739E-1,9.6785195E-2,9.125972E-1,2.4506469E-1,6.718366E-1,-3.386232E-1,5.801915E-3,2.8221014E-1,-7.3098135E-3,-2.2928338E-2,-2.1223396E-1,2.5889397E-1,3.268938E-3,-4.3470126E-1,-1.471283E-3,3.8260898E-1,-1.641382E-1,-3.2233822E-1,1.0377687E0,-4.0500835E-2,-1.6207412E-1,-3.9243063E-1,1.4907253E-1,-1.2872207E-1,8.003164E-3,-9.3430406E-1,-2.4102068E-1,5.0587827E-1,1.5047169E-1,1.3856396E-1,-1.5029903E-2,-1.0291573E0,-5.109323E-1,6.0459065E-1,-1.6056627E-1,3.2999814E-2,6.624638E-1,-1.7437218E-1,2.487829E-1,-3.969902E-1,1.6275553E-1,3.806644E-2,4.2320845E-1,-9.97813E-1,-1.5384719E-1,2.4066223E-2,7.288368E-1,-1.6638866E-1,4.4275865E-1,-8.2146776E-1,1.5771477E-1,-2.0170781E-1,1.9574721E-1,-6.0292188E-2,-5.810124E-1,2.7448E-1,1.2860076E-2,9.8040245E-2,-7.1901184E-1,1.8542956E-1,4.9693212E-1,-3.0535752E-1,2.8849313E-1,-2.4586672E-1,2.5005406E-1,7.218896E-1,1.1558964E-2,6.974883E-2,9.166226E-1,1.6343032E-1,8.8221806E-1,-4.755048E-1,2.4367905E-1,-1.6522272E-1,-5.4433393E-1,3.110618E-1,-5.476956E-1,1.1474675E0,1.940851E-1,-9.107196E-1,-2.1371858E-1,4.5869333E-1,3.9678585E-2,-4.0003244E-2,-1.0221473E0,6.594848E-1,-2.3623176E-1,2.3076075E-1,-1.5858375E-1,2.0173419E-1,-1.644718E-1,-1.2414469E0,-5.8309156E-1,2.6140052E-1,-8.9897275E-2,-5.764326E-1,-1.1289233E-1,-3.4598014E-1,-1.018169E0,5.891433E-1,-5.434054E-1,7.8172344E-1,1.9600256E-1,1.7987013E-1,-2.1312091E-1,2.52675E-1,7.5625604E-1,-4.2139176E-1,3.8658196E-1,-9.915716E-2,-5.6851953E-1,-3.4421155E-1,4.178913E-1,3.669052E-2,-5.397846E-1,-4.2810836E-1,-7.173739E-3,1.3317049E-1,-2.4368747E-1,-6.0567355E-1,-1.3915299E-1,1.8676803E-1,8.236611E-1,5.602659E-1,-4.1073257E-1,1.1000353E0,3.0330336E-1,-1.4311777E-1,6.8334657E-1,7.4696854E-2,-4.1301328E-1,-2.6960745E-1,3.1447354E-1,6.5822905E-1,-1.932851E-1,-3.6021806E-2,5.8832675E-1,6.076516E-1,2.0088874E-1,-4.8529932E-1,1.4806788E-1,2.48105E-2,-8.256231E-2,-2.9118386E-1,-9.00173E-2,4.7300455E-1,1.0815729E-1,2.7399886E-1,-7.0633995E-3,9.434221E-2,-4.8614177E-1,-2.917495E-1,3.265509E-1,1.7499626E-1,7.8914523E-1,-1.9508277E-1,8.8859685E-2,-2.0548375E-1,-7.616821E-2,-2.4611978E-1,-7.16572E-2,2.865571E-3,6.0500145E-1,2.4642603E-2,-3.3938834E-1,2.2831349E-1,7.7426887E-1,-1.3758622E-1,3.8544258E-1,1.0446806E-1,9.750124E-1,-4.2624107E-1,-5.715113E-4,-2.7474338E-1,-6.263386E-1,7.378805E-3,-5.3866255E-1,9.259988E-1,1.633208E-1,-8.7414235E-3,-3.7104243E-1,5.414228E-1,-4.3926382E-1,-3.4109405E-1,-8.7993675E-1,4.93655E-1,-6.7498796E-2,4.825245E-2,-4.3666637E-1,2.308771E-2,6.5020794E-1,2.2233447E-1,-4.215724E-1,3.2868716E-1,-2.750132E-1,1.1731434E0,1.8267354E-1,-4.2759627E-1,-1.2787247E-1,8.90499E-1,4.517928E-2,-6.683749E-2,-4.0182948E-1,4.4922605E-1,-3.8558275E-2,-1.408454E-2,3.1134242E-2,6.3418174E-1,-8.390491E-2,-1.2835383E0,-5.5194753E-1,6.225453E-2,-8.833897E-1,-7.174808E-1,3.2532576E-1,3.6257157E-1,5.156835E-2,6.336964E-1,-1.7903952E-2,6.4514303E-1,-4.970074E-1,4.1923758E-1,3.9646145E-2,-2.797741E-1,1.4996316E-1,-1.2314037E-1,8.846075E-1,5.148259E-1,1.3662466E-2,5.1630814E-2,9.421652E-1,-4.170204E-1,4.6283588E-1,-4.900773E-3,8.159569E-1,-3.0989653E-1,1.6036625E-1,-1.1437068E-1,4.3150583E-1,8.393844E-3,-6.7014146E-1,-1.0509341E-2,4.5345783E-1,-5.7817864E-1,-2.6078261E-2,-8.2484406E-1,-3.0760318E-1,-2.7141345E-1,1.10917106E-1,-6.8030155E-1,-1.0683987E-1,3.4260216E-1,1.0256399E0,-9.8122776E-1,-2.2780472E-1,3.9412957E-2,8.222196E-1,-1.6172415E-1,5.073172E-1,-6.4423543E-1,4.1931342E-2,-2.1733521E-1,4.803662E-1,6.9912005E-4,-7.3030686E-1,-4.5235295E-2,6.897552E-1,-7.9652584E-1,-3.5184458E-1,3.302034E-2,4.93804E-1,3.768118E-1,-3.676576E-1,-3.2654303E-1,5.0264627E-1,2.129444E-1,-3.7227434E-1,-1.5255113E-1,-8.8806313E-1,7.070969E-1,-2.1080042E-1,3.933502E-2,5.677775E-1,-6.2520105E-1,-1.2686977E-1,2.9875052E-1,-5.387546E-1,-4.9024288E-2,2.1823616E-1,-6.6821295E-1,7.83637E-2,-9.2238796E-1,9.790658E-3,5.840084E-1,1.4334597E-1,-3.812393E-1,6.93276E-2,1.1250242E-1,6.137901E-1,3.398908E-1,-1.6506551E-1,7.1780453E-3,2.7724898E-1,-1.3194966E-1,9.189366E-2,-4.8454547E-1,-1.9887511E-1,2.7159223E-1,-1.77203E-1,-4.705274E-2,6.2839633E-1,-3.2399678E-1,4.070289E-1,3.669061E-1,-3.097139E-1,1.4090358E-2,-7.7275485E-2,-1.8869121E-1,-6.2905544E-1,-4.7519565E-1,-7.723933E-2,7.818127E-1,1.4778563E-1,4.7082213E-1,-1.557465E-1,-5.599525E-1,-1.0370037E-1,7.071585E-1,4.2388454E-2,-7.0897776E-1,-1.9123627E-1,-2.184978E-2,-3.618428E-1,-2.6444346E-2,-4.197001E-1,-1.4543656E-1,9.663571E-2,-2.7659896E-1,1.2224792E-2,-5.6991076E-1,4.0546784E-1,-5.074413E-1,-9.132757E-2,4.3611512E-1,-3.026555E-2,1.2048894E0,5.217412E-1,1.2254626E-1,-4.3702918E-1,9.143016E-1,2.6368278E-1,-2.4279042E-3,3.0261597E-1,-2.1405701E-1,-7.829748E-1,4.0566736E-1,-1.4422364E-2,-2.935432E-1,3.3894742E-1,-7.936998E-1,-1.8371248E-1,-9.371446E-2,6.745344E-1,-7.300489E-1,-2.037784E-1,1.004644E0,1.78259E-1,-5.0473195E-1,-7.227292E-2,-3.2859787E-1,6.1992954E-2,-1.6916537E-1,-6.229939E-1,1.7328605E-1,9.671009E-1,5.048773E-1,-1.9543226E-1,-1.4740542E-1,-7.176967E-1,-2.8165284E-1,-9.127324E-1,-1.1109403E-1,-7.892891E-1,-1.9080062E-1,3.985098E-1,-9.580344E-1,-5.308619E-2,3.2541347E-1,9.214721E-1,-2.2338268E-1,5.045487E-1,5.1804143E-3,-2.1823844E-1,2.6842922E-1,2.202821E-2,-2.803073E-1,1.2738523E-1,-2.5155273E-1,-7.431552E-1,3.0231354E-1,9.195684E-1,-2.3724953E-2,6.633393E-1,2.0722248E-1,-7.45912E-2,2.6048177E-1,8.675544E-1,-1.2959076E-1,6.201929E-1,-7.580381E-2,-4.1644263E-1,1.6376615E-1,-1.3364251E-1,5.082889E-1,-2.3193358E-1,-2.3010181E-1,-5.575977E-1,6.037815E-1,2.3010436E-1,-1.9286731E-1,2.5244695E-1,2.0604294E-3,-4.4966906E-1,-2.7895918E-1,2.1104358E-1,-4.8047435E-1,1.479849E-1,9.115802E-1,2.8141505E-1,-3.0268472E-1,-7.8371847E-1,-2.2976516E-1,2.0702015E-1,-4.4005835E-1,6.1623406E-2,-1.8642712E-1,4.3601662E-1,-1.1500322E0,-2.92633E-1,5.5595005E-1,-3.9975345E-1,1.0066465E-1,5.727039E-1,-1.07189715E-1,3.1481448E-1,1.4775611E-1,-4.8717645E-1,2.7222794E-1,7.448784E-1,3.4029374E-1,-4.867133E-1,7.837318E-1,5.2780986E-2,6.989525E-1,1.680797E-1,6.641237E-1,2.7907586E-1,4.189069E-1,-5.721064E-1,-3.0531994E-1,4.7530495E-2,5.2135074E-1,-1.1580391E-1,3.9618567E-1,6.6353565E-1,-1.0862796E0,-1.9793227E-1,2.5652477E-1,-4.9659634E-1,8.8618174E-2,-3.9106935E-1,3.9553925E-1,3.248587E-2,-1.6962555E-1,2.6508328E-1,3.2670006E-1,7.9051256E-1,1.1355834E-3,8.7789214E-1,2.9077715E-1,-3.2256076E-1,4.814837E-1,1.2498788E-1,-1.1450614E-1,3.9921742E-2,5.070546E-1,9.905811E-2,-3.32089E-1,-8.394717E-2,2.1282643E-2,3.1207433E-1,-2.1656224E-1,-7.536493E-1,-2.5442508E-1,6.198142E-1,6.213243E-1,-1.01627104E-1,-1.3583595E-1,-8.506177E-1,3.6979058E-1,1.1480031E0,4.6774764E-2,-8.0009174E-1,1.063112E0,1.4107913E-1,1.6034102E-1,6.8577796E-1,-1.052217E-2,2.60905E-1,-3.6286512E-1,-4.3497987E-2,-6.6163504E-1,-5.8906622E-2,-5.447236E-1,-1.0872542E0,-1.542363E-1,-9.038967E-1,-2.9845014E-1,9.569066E-2,-1.3068706E-1,4.9349612E-1,-1.01773E0,-1.6048966E-1,9.021716E-2,-2.9289356E-1,-3.958296E-2,3.85925E-1,-1.6434811E-1,-3.8745695E-1,6.544073E-2,-1.8730886E-1,-1.5381278E-1,-7.0739716E-1,-2.793624E-1,2.1983808E-1,-6.8465304E-1,-4.7934048E-2,-4.3417726E-2,-3.2187557E-1,-1.1192882E-1,3.2991815E-1,1.6493437E-1,-4.0745732E-1,2.3505364E-2,-2.1656676E-1,6.3552386E-1,1.1760856E-1,-2.2511123E-1,-6.747257E-1,7.7944465E-2,-4.333719E-1,5.753226E-2,7.3519355E-1,1.1922112E-1,-1.8061341E-1,1.1397794E0,7.612712E-2,-4.2256612E-1,4.3502435E-1,-7.0013195E-1,-1.824097E-1,-1.3274718E-2,7.199306E-1,-2.812647E-1,1.14445105E-1,1.0515741E0,1.8334337E-1,-3.6985062E-2,-3.1230083E-1,-4.207689E-1,-1.0213746E0,5.623435E-3,8.3471066E-1,-5.0007147E-1,-3.7684864E-3,1.0651928E-1,-6.328968E-1,-2.5838187E-1,7.6875234E-1,3.0414018E-1,-1.6156593E-1,-4.1769874E-1,-8.872272E-1,4.044927E-1,-3.4898773E-1,-4.698753E-2,-6.69692E-1,4.0833738E-1,-2.0452751E-1,-1.3557026E-1,-6.2830526E-1,1.0179082E0,4.999107E-2,4.230689E-2,-3.3643147E-1,-3.78445E-1,1.1584543E-1,-1.3506751E-1,5.554501E-1,-9.009307E-2,-4.6302497E-1,3.6404002E-1,-6.659293E-1,1.0393401E-1,5.720078E-1,1.830604E-1,-4.3706548E-1,8.500691E-4,6.045053E-1,-1.6085191E-1,-8.839122E-1,-4.9039805E-1,3.3366296E-1,-4.9436203E-1,2.7054582E-2,-4.419046E-1,-6.998266E-2,-6.472903E-2,3.040046E-1,-4.0146706E-1,-6.206142E-2,-1.1319475E0,-2.9938766E-1,6.65096E-1,2.468479E-1,5.4854816E-1,1.1715596E0,5.113866E-2,-6.700479E-1,-2.6078725E-1,3.3739513E-1,-4.1121507E-1,-3.5257112E-2,5.554266E-1,-2.3617116E-1,7.5212836E-2,-5.363688E-1],"categories":[],"categories_nodes":[],"categories_segments":[],"categories_sizes":[],"default_left":[1,1,1,1,1,1,1,1,1,1,1,1,1,1,1,1,1,1,1,1,0,1,0,1,1,1,0,1,1,0,1,1,1,1,1,1,1,1,1,0,1,1,1,1,1,0,0,1,0,1,1,1,1,1,0,1,1,1,1,1,1,1,1,1,0,1,1,1,1,1,1,1,1,0,1,0,0,1,1,1,1,0,0,1,1,0,0,1,1,1,1,1,1,1,1,1,1,1,1,1,1,1,1,1,1,0,1,1,1,0,1,1,1,0,1,1,1,1,1,0,0,1,1,1,1,1,1,0,1,1,1,1,1,1,1,1,1,0,1,1,1,1,1,1,0,0,1,1,1,1,0,1,1,1,1,1,1,1,1,1,1,1,1,1,1,1,1,1,1,0,1,1,0,1,1,1,1,1,1,0,0,0,1,0,1,1,1,1,1,1,1,1,1,1,0,1,1,1,1,0,1,0,0,1,1,1,1,0,0,1,1,1,1,0,1,0,1,1,1,1,1,1,0,1,1,1,0,0,1,0,0,0,1,0,1,1,1,0,0,1,1,0,1,0,0,1,0,1,0,1,0,0,0,0,0,0,1,1,0,0,0,0,0,1,0,0,0,0,0,1,1,1,1,1,1,1,0,1,1,1,1,0,0,0,1,0,0,0,1,0,1,1,1,1,1,1,1,1,0,1,0,0,0,1,1,1,1,1,1,1,1,1,0,0,0,1,1,0,0,1,1,0,1,1,1,1,1,0,1,0,1,0,1,1,1,1,1,1,1,0,1,1,1,1,1,0,0,1,0,0,0,1,1,1,1,1,1,1,0,1,1,0,1,1,0,0,0,0,1,1,0,1,0,0,1,0,0,1,1,0,0,0,0,1,1,1,1,0,0,1,1,1,1,1,0,1,1,0,1,1,1,1,0,1,1,0,1,0,1,1,0,0,0,1,1,1,1,1,0,0,1,0,0,1,0,1,1,1,1,0,1,0,0,0,1,0,1,1,1,1,1,1,1,1,1,0,1,1,1,1,0,1,1,1,1,1,1,1,0,1,1,1,1,1,1,1,0,1,1,0,0,1,1,0,0,1,1,1,0,1,0,0,0,1,1,0,1,1,1,0,0,0,0,1,1,0,0,1,1,1,1,1,1,0,1,0,1,0,0,0,0,1,1,0,1,0,0,1,1,1,0,0,0,0,1,1,0,1,1,1,0,1,0,0,0,1,0,1,1,1,1,0,0,1,1,1,1,1,0,0,0,1,0,1,1,0,1,0,1,0,0,0,0,0,0,0,1,0,0,0,1,0,1,0,0,0,1,1,1,1,1,0,0,1,1,0,0,0,1,1,1,0,0,1,0,1,0,1,1,1,1,1,1,1,1,0,1,1,1,1,0,1,1,1,1,1,1,0,1,0,0,1,1,0,1,0,1,1,1,1,1,1,1,1,1,0,1,1,1,1,1,0,1,1,1,0,1,1,1,1,1,1,1,1,1,0,0,1,0,1,1,0,0,1,1,1,1,0,0,0,0,0,0,1,0,1,0,1,0,1,0,0,1,1,0,1,0,1,1,1,1,1,1,1,1,1,1,1,0,1,1,1,0,1,0,0,0,1,1,0,0,1,1,0,0,0,0,0,0,0,0,0,0,0,0,0,0,0,0,0,0,0,0,0,0,0,0,0,0,0,0,0,0,0,0,0,0,0,0,0,0,0,0,0,0,0,0,0,0,1,1,0,0,0,0,0,0,0,0,0,0,0,0,0,0,0,0,0,0,0,0,0,0,0,0,0,0,0,0,0,0,0,0,0,0,0,0,0,0,0,0,0,0,0,0,0,0,0,0,0,0,0,0,0,0,0,0,0,0,0,0,0,0,0,0,0,0,0,0,0,0,0,0,0,0,0,0,0,0,0,0,0,0,0,0,0,0,0,0,1,1,0,0,0,0,0,0,0,0,0,0,0,0,0,0,0,0,0,0,0,0,0,0,0,0,0,0,0,0,0,0,0,0,0,0,0,0,0,0,0,0,0,0,0,0,0,0,0,0,0,0,0,0,0,0,0,0,0,0,0,0,0,0,0,0,0,0,0,0,0,0,0,0,0,0,0,0,0,0,0,0,0,0],"id":1,"left_children":[1,3,5,7,9,11,13,15,17,19,21,23,25,27,29,31,33,35,37,39,-1,41,-1,43,45,47,-1,49,51,-1,53,55,57,59,61,63,65,67,69,-1,71,73,75,77,79,-1,-1,81,-1,83,85,-1,89,91,-1,93,95,97,99,101,103,105,107,109,-1,111,113,115,117,119,121,123,125,-1,127,-1,-1,129,131,133,135,-1,-1,137,139,-1,-1,-1,-1,141,143,145,147,149,151,153,155,157,159,161,163,165,167,169,171,-1,173,175,177,-1,179,181,183,-1,185,187,189,191,193,-1,-1,195,197,199,201,203,205,-1,207,209,211,213,215,217,219,221,223,-1,225,227,229,231,233,235,-1,-1,237,-1,241,243,-1,245,247,249,251,253,255,257,259,261,263,265,267,269,271,273,275,277,279,-1,281,283,-1,285,287,289,291,293,295,-1,-1,-1,297,-1,299,301,303,305,307,309,311,313,315,317,-1,319,321,323,325,-1,327,-1,-1,329,331,333,335,-1,-1,337,339,341,343,-1,345,-1,347,349,351,353,-1,357,-1,359,361,363,-1,-1,365,-1,-1,-1,367,-1,369,371,373,-1,-1,-1,-1,-1,375,-1,-1,377,-1,379,-1,381,-1,-1,-1,-1,-1,-1,383,385,-1,-1,-1,-1,-1,387,-1,-1,-1,-1,-1,389,391,393,395,397,399,401,-1,403,405,407,409,-1,-1,-1,411,-1,-1,-1,413,-1,415,417,419,421,423,425,427,429,-1,431,-1,-1,-1,433,435,437,439,441,443,445,447,449,-1,-1,-1,451,453,-1,-1,455,457,-1,459,461,463,465,467,-1,469,-1,471,-1,473,475,477,479,481,483,485,-1,487,489,491,493,495,-1,-1,497,-1,-1,-1,499,501,503,505,-1,-1,507,-1,509,511,-1,513,515,-1,-1,-1,-1,517,519,-1,521,-1,-1,523,-1,-1,525,527,-1,-1,-1,-1,529,531,533,535,-1,-1,537,539,541,543,545,-1,547,549,-1,551,553,555,557,-1,559,561,-1,563,-1,565,567,-1,-1,-1,569,571,573,575,577,-1,-1,579,-1,-1,581,-1,583,585,587,589,-1,591,-1,-1,-1,593,-1,595,597,599,601,603,605,607,609,611,-1,613,615,617,619,-1,621,623,625,627,629,631,633,-1,635,637,639,641,643,645,647,-1,649,651,-1,-1,653,655,-1,-1,657,659,661,-1,663,-1,-1,-1,665,667,-1,669,671,673,-1,-1,-1,-1,675,677,-1,-1,679,681,683,685,687,689,-1,691,-1,693,-1,-1,-1,-1,695,697,-1,699,-1,-1,701,703,705,-1,-1,-1,-1,-1,709,-1,-1,713,715,-1,717,-1,-1,-1,719,-1,721,723,725,727,-1,-1,729,731,733,735,737,-1,-1,-1,739,-1,741,743,-1,745,-1,747,-1,-1,-1,-1,-1,-1,-1,749,-1,-1,-1,751,-1,753,-1,-1,-1,755,757,-1,761,763,-1,-1,765,767,-1,-1,-1,769,771,773,-1,-1,775,-1,777,-1,779,781,783,785,787,789,791,793,-1,795,797,799,801,-1,803,805,807,809,811,813,-1,815,-1,-1,817,819,-1,821,-1,823,825,827,829,831,833,835,837,839,-1,841,843,845,847,-1,-1,851,853,855,-1,857,859,861,863,865,867,869,871,873,-1,-1,875,-1,877,879,-1,-1,881,883,885,887,-1,-1,-1,-1,-1,-1,889,-1,891,-1,893,-1,895,-1,-1,897,899,-1,901,-1,903,905,907,909,911,913,915,917,919,921,923,-1,925,927,929,-1,931,-1,-1,-1,-1,-1,-1,-1,-1,-1,-1,-1,-1,-1,-1,-1,-1,-1,-1,-1,-1,-1,-1,-1,-1,-1,-1,-1,-1,-1,-1,-1,-1,-1,-1,-1,-1,-1,-1,-1,-1,-1,-1,-1,-1,-1,-1,-1,-1,-1,-1,-1,-1,-1,-1,-1,-1,-1,-1,-1,-1,-1,-1,-1,-1,-1,-1,-1,-1,-1,-1,-1,-1,-1,-1,-1,-1,-1,-1,-1,-1,-1,-1,-1,-1,-1,-1,-1,-1,-1,-1,-1,-1,-1,-1,-1,-1,-1,-1,-1,-1,-1,-1,-1,-1,-1,-1,-1,-1,-1,-1,-1,-1,-1,-1,-1,-1,-1,-1,-1,-1,-1,-1,-1,-1,-1,-1,-1,-1,-1,-1,-1,-1,-1,-1,-1,-1,-1,-1,-1,-1,-1,-1,-1,-1,-1,-1,-1,-1,-1,-1,-1,-1,-1,-1,-1,-1,-1,-1,-1,-1,-1,-1,-1,-1,-1,-1,-1,-1,-1,-1,-1,-1,-1,-1,-1,-1,-1,-1,-1,-1,-1,-1,-1,-1,-1,-1,-1,-1,-1,-1,-1,-1,-1,-1,-1,-1,-1,-1,-1,-1,-1,-1,-1,-1,-1,-1,-1,-1,-1,-1,-1,-1,-1,-1,-1,-1,-1,-1,-1,-1,-1,-1,-1,-1,-1,-1,-1,-1,-1],"loss_changes":[6.6033535E0,6.763673E0,4.590409E0,7.3210087E0,6.174777E0,4.725293E0,1.3314409E1,9.327499E0,4.6466417E0,6.747613E0,1.0384237E1,3.0093584E0,3.600058E0,2.296464E0,8.717978E0,6.9277782E0,6.2312937E0,3.2180858E0,3.6440306E0,4.097555E0,0E0,8.66325E0,0E0,2.863447E0,3.5126176E0,1.7282138E0,0E0,5.1022844E0,1.123777E1,0E0,5.3031054E0,4.444758E0,5.172725E0,5.47052E0,6.833358E0,4.3615556E0,3.5575275E0,5.0927114E0,9.645976E0,0E0,3.6747417E0,5.587651E0,2.3444386E0,5.1296387E0,3.900648E0,0E0,0E0,2.1579874E0,0E0,4.851992E0,7.4534297E-1,1.3085365E-1,1.9939404E0,2.6649523E0,0E0,7.3002405E0,5.1910152E0,6.6361227E0,5.6692476E0,6.8014917E0,5.110857E0,4.2479563E0,6.4876504E0,1.8433094E0,0E0,2.5328712E0,1.164642E1,6.9862366E0,4.2109947E0,6.0773754E-1,4.682555E0,5.167547E0,7.2535677E0,0E0,3.9958792E0,0E0,0E0,5.1830883E0,7.8400445E0,5.6949925E0,7.8062162E0,0E0,0E0,5.4650784E0,5.164546E0,0E0,0E0,0E0,0E0,4.0143876E0,3.026134E0,2.6619163E0,1.961133E0,3.4805899E0,8.446269E0,4.4827194E0,3.2185714E0,4.240102E0,2.9472828E0,3.7355685E0,4.2574606E0,7.8780584E0,4.5032363E0,3.3732166E0,2.6753764E0,0E0,2.5613508E0,5.1221633E0,5.183469E0,0E0,4.342146E-1,3.845357E0,9.402695E-1,0E0,2.2808247E0,4.9422092E0,7.9487925E0,3.4132853E0,7.157235E0,0E0,0E0,7.810732E0,1.1991648E1,5.236599E0,4.8874635E-1,6.2743444E0,3.2733173E0,0E0,1.4329844E0,6.425334E0,7.695294E0,4.2851057E0,2.5315552E0,3.4046414E0,7.377663E0,4.122122E0,3.9361982E0,0E0,2.2501335E0,5.3950534E0,2.3552651E0,2.1606207E0,2.63506E0,3.4320612E0,0E0,0E0,4.521353E0,2.6022911E-2,1.4845104E0,1.3351918E0,0E0,5.2363763E0,2.6082172E0,7.474346E0,8.181293E0,1.0298283E0,4.1481843E0,1.8633037E0,2.0447984E0,1.772799E0,6.771105E0,8.705966E0,1.0126681E0,3.9677937E0,6.9858036E0,4.3947124E0,4.456648E0,4.463663E0,6.642909E0,0E0,4.4529343E-1,5.1070404E0,0E0,1.9164997E0,2.7739708E0,2.5642948E0,5.9808207E0,6.118059E0,3.8527074E0,0E0,0E0,0E0,4.0674477E0,0E0,8.967192E-1,5.1601756E-1,2.0837274E0,1.490218E1,5.180051E0,8.267379E0,1.8820019E0,9.586309E0,2.4920635E0,1.4693599E0,0E0,6.6767035E0,3.6748028E0,4.512355E0,4.9990063E0,0E0,1.7415009E0,0E0,0E0,6.749114E0,2.6894007E0,4.670744E0,5.7030506E0,0E0,0E0,5.171383E0,5.4135365E0,3.9545512E0,6.7828574E0,0E0,4.1439433E0,0E0,1.7004116E0,1.2719016E0,6.080854E0,1.4165176E1,3.0428648E-1,2.8064806E0,0E0,4.996731E0,5.6698036E0,3.8156314E0,0E0,0E0,2.564189E0,0E0,0E0,0E0,3.9389079E0,0E0,8.542266E-1,6.1676373E0,5.423351E0,0E0,0E0,0E0,0E0,0E0,2.1362734E0,0E0,0E0,3.4339252E0,0E0,5.477859E0,0E0,4.2339025E0,0E0,0E0,0E0,0E0,0E0,0E0,3.0483134E0,1.8767873E0,0E0,0E0,0E0,0E0,0E0,2.4057713E0,0E0,0E0,0E0,0E0,0E0,6.3766346E0,2.9755378E0,4.126136E0,1.5466074E1,3.6399784E0,2.8461921E0,2.019949E0,0E0,6.7715225E0,1.7644839E0,4.4305506E0,2.6293802E0,0E0,0E0,0E0,8.3189785E-1,0E0,0E0,0E0,2.734877E0,0E0,3.9531965E0,3.4978027E0,8.822205E0,2.6493292E0,3.978514E0,4.734879E0,7.886387E0,4.319075E0,0E0,1.8298055E0,0E0,0E0,0E0,2.0280752E0,2.8010516E0,8.537081E0,4.6332207E0,2.6271386E0,4.9639096E0,3.4737663E0,6.641138E0,1.9925864E0,0E0,0E0,0E0,4.4905076E0,2.612812E0,0E0,0E0,3.026003E0,5.122218E0,0E0,2.6017156E0,4.6466427E0,5.7045145E0,7.0847325E0,7.920254E0,0E0,4.477377E-1,0E0,4.542017E0,0E0,2.9048176E0,4.3447986E0,6.780322E0,2.661993E0,1.7283378E0,3.850611E0,3.299346E0,0E0,5.5023623E0,1.6616015E0,3.607067E0,3.8535557E0,3.384489E0,0E0,0E0,1.9972482E0,0E0,0E0,0E0,4.947819E0,3.0654836E0,3.9543746E0,3.6299152E0,0E0,0E0,4.9380054E0,0E0,6.2266545E0,5.804102E0,0E0,4.762838E0,5.4529114E0,0E0,0E0,0E0,0E0,2.8367786E0,1.0700417E0,0E0,5.954186E0,0E0,0E0,1.3226917E0,0E0,0E0,9.443225E0,6.81092E0,0E0,0E0,0E0,0E0,6.4839067E0,1.7502887E0,1.4651673E0,4.374467E0,0E0,0E0,4.3896093E0,4.174691E0,9.145217E-1,2.5572252E0,3.6044292E0,0E0,2.2573338E0,3.0917578E0,0E0,4.158988E0,4.136688E0,4.1501374E0,2.9937239E0,0E0,2.3149002E0,3.3016245E0,0E0,1.0149279E0,0E0,1.6997433E0,2.5447047E0,0E0,0E0,0E0,5.1743374E0,3.3817165E0,2.711523E0,6.5731134E0,3.5154693E0,0E0,0E0,2.2181544E0,0E0,0E0,3.4364986E0,0E0,4.8259068E0,2.7472794E0,5.0225096E0,6.9025183E0,0E0,9.022658E-1,0E0,0E0,0E0,2.3576748E0,0E0,1.7679176E0,7.412953E0,1.1498791E1,5.132126E0,6.0686836E0,2.776308E0,6.589344E0,3.6514235E0,2.5403094E0,0E0,4.7682343E0,1.41927E0,2.5495517E0,1.8340508E0,0E0,3.350395E0,3.4889445E0,3.2190933E0,3.68828E0,5.63972E0,3.8275404E0,4.3382964E0,0E0,6.5138454E0,2.975562E0,1.7997178E0,2.9054852E0,3.032863E0,2.7370467E0,5.152841E0,0E0,3.2573862E0,7.2528076E0,0E0,0E0,5.1353784E0,1.8452206E0,0E0,0E0,4.329556E0,3.5140762E0,3.7313104E0,0E0,4.3615704E0,0E0,0E0,0E0,4.0396605E0,7.2871614E-1,0E0,3.345561E0,2.811582E0,2.469448E0,0E0,0E0,0E0,0E0,3.2471676E0,3.685161E0,0E0,0E0,2.7295856E0,5.767037E0,3.0868797E0,3.4463851E0,9.897833E0,8.009659E0,0E0,1.311446E0,0E0,1.9526129E0,0E0,0E0,0E0,0E0,5.301325E0,4.414368E0,0E0,3.1863964E0,0E0,0E0,2.8140502E0,3.8086302E0,5.603452E-1,0E0,0E0,0E0,0E0,3.697623E-1,3.645538E0,0E0,3.182776E-1,4.5967555E-1,1.7171391E0,0E0,1.057874E0,0E0,0E0,0E0,2.2853212E0,0E0,2.7328362E0,3.6236649E0,6.4016104E-1,5.743073E0,0E0,0E0,2.385295E0,3.0047653E0,3.1221275E0,5.6580863E0,8.8835764E-1,0E0,0E0,0E0,1.4566932E0,0E0,1.935295E0,8.44357E-1,0E0,4.029712E0,0E0,2.3582654E0,0E0,0E0,0E0,0E0,0E0,0E0,0E0,3.1559448E0,0E0,0E0,0E0,4.1927052E-1,0E0,7.235624E0,0E0,0E0,0E0,2.4184537E0,3.5363724E0,2.4610996E-2,3.9697552E0,2.607469E0,0E0,0E0,6.92912E0,4.1270456E0,0E0,0E0,0E0,9.7197866E-1,2.8498478E0,9.815038E0,0E0,0E0,4.4368258E0,0E0,4.8752427E-1,0E0,6.2127647E0,4.402381E0,9.958359E0,4.575675E0,6.6126137E0,9.252016E0,4.9569407E0,4.187592E0,0E0,3.1013327E0,3.7439141E0,5.0844254E0,3.627088E0,0E0,7.988863E0,3.804044E0,2.3387423E0,2.3917065E0,2.5780702E0,7.2668713E-1,0E0,2.446891E0,0E0,0E0,3.5391955E0,3.0707073E0,0E0,3.252898E0,0E0,2.3429623E0,2.9182706E0,2.6221871E0,4.202334E0,8.114625E0,3.836627E0,4.6205873E0,3.172678E0,4.1464067E0,0E0,1.0840745E0,1.8787098E0,1.799419E0,2.0522506E0,3.7549514E-1,0E0,6.040963E0,3.803182E0,1.0780909E0,0E0,4.937497E0,5.2135496E0,7.422234E0,5.059645E-1,9.949722E-1,7.2897468E0,6.4472876E0,3.732265E0,6.482787E0,0E0,0E0,1.8370755E0,0E0,5.6218624E-1,3.9390392E0,0E0,0E0,4.6487236E0,2.5623717E0,1.5037048E0,8.550748E0,0E0,0E0,0E0,0E0,0E0,0E0,6.500032E-1,0E0,1.5633514E0,0E0,5.391751E0,0E0,9.726409E-1,0E0,0E0,5.225572E0,2.5313473E0,0E0,2.2922115E0,0E0,5.9694543E0,8.147369E0,6.94528E0,9.288675E0,5.212041E-1,5.4552066E-1,4.2960334E-1,3.4999752E0,2.8841677E0,8.287678E-1,4.195168E0,0E0,3.149021E0,2.623414E0,4.9611497E0,0E0,2.5570195E0,0E0,0E0,0E0,0E0,0E0,0E0,0E0,0E0,0E0,0E0,0E0,0E0,0E0,0E0,0E0,0E0,0E0,0E0,0E0,0E0,0E0,0E0,0E0,0E0,0E0,0E0,0E0,0E0,0E0,0E0,0E0,0E0,0E0,0E0,0E0,0E0,0E0,0E0,0E0,0E0,0E0,0E0,0E0,0E0,0E0,0E0,0E0,0E0,0E0,0E0,0E0,0E0,0E0,0E0,0E0,0E0,0E0,0E0,0E0,0E0,0E0,0E0,0E0,0E0,0E0,0E0,0E0,0E0,0E0,0E0,0E0,0E0,0E0,0E0,0E0,0E0,0E0,0E0,0E0,0E0,0E0,0E0,0E0,0E0,0E0,0E0,0E0,0E0,0E0,0E0,0E0,0E0,0E0,0E0,0E0,0E0,0E0,0E0,0E0,0E0,0E0,0E0,0E0,0E0,0E0,0E0,0E0,0E0,0E0,0E0,0E0,0E0,0E0,0E0,0E0,0E0,0E0,0E0,0E0,0E0,0E0,0E0,0E0,0E0,0E0,0E0,0E0,0E0,0E0,0E0,0E0,0E0,0E0,0E0,0E0,0E0,0E0,0E0,0E0,0E0,0E0,0E0,0E0,0E0,0E0,0E0,0E0,0E0,0E0,0E0,0E0,0E0,0E0,0E0,0E0,0E0,0E0,0E0,0E0,0E0,0E0,0E0,0E0,0E0,0E0,0E0,0E0,0E0,0E0,0E0,0E0,0E0,0E0,0E0,0E0,0E0,0E0,0E0,0E0,0E0,0E0,0E0,0E0,0E0,0E0,0E0,0E0,0E0,0E0,0E0,0E0,0E0,0E0,0E0,0E0,0E0,0E0,0E0,0E0,0E0,0E0,0E0,0E0,0E0,0E0,0E0,0E0,0E0,0E0,0E0,0E0,0E0,0E0,0E0,0E0,0E0,0E0,0E0,0E0,0E0,0E0,0E0,0E0,0E0,0E0,0E0,0E0,0E0,0E0],"parents":[2147483647,0,0,1,1,2,2,3,3,4,4,5,5,6,6,7,7,8,8,9,9,10,10,11,11,12,12,13,13,14,14,15,15,16,16,17,17,18,18,19,19,21,21,23,23,24,24,25,25,27,27,28,28,30,30,31,31,32,32,33,33,34,34,35,35,36,36,37,37,38,38,40,40,41,41,42,42,43,43,44,44,47,47,49,49,50,50,51,51,52,52,53,53,55,55,56,56,57,57,58,58,59,59,60,60,61,61,62,62,63,63,65,65,66,66,67,67,68,68,69,69,70,70,71,71,72,72,74,74,77,77,78,78,79,79,80,80,83,83,84,84,89,89,90,90,91,91,92,92,93,93,94,94,95,95,96,96,97,97,98,98,99,99,100,100,101,101,102,102,103,103,104,104,106,106,107,107,108,108,110,110,111,111,112,112,114,114,115,115,116,116,117,117,118,118,121,121,122,122,123,123,124,124,125,125,126,126,128,128,129,129,130,130,131,131,132,132,133,133,134,134,135,135,136,136,138,138,139,139,140,140,141,141,142,142,143,143,146,146,147,147,148,148,149,149,151,151,152,152,153,153,154,154,155,155,156,156,157,157,158,158,159,159,160,160,161,161,162,162,163,163,164,164,165,165,166,166,167,167,168,168,170,170,171,171,173,173,174,174,175,175,176,176,177,177,178,178,182,182,184,184,185,185,186,186,187,187,188,188,189,189,190,190,191,191,192,192,193,193,195,195,196,196,197,197,198,198,200,200,203,203,204,204,205,205,206,206,209,209,210,210,211,211,212,212,214,214,216,216,217,217,218,218,219,219,220,220,221,221,223,223,224,224,225,225,228,228,232,232,234,234,235,235,236,236,242,242,245,245,247,247,249,249,256,256,257,257,263,263,269,269,270,270,271,271,272,272,273,273,274,274,275,275,277,277,278,278,279,279,280,280,284,284,288,288,290,290,291,291,292,292,293,293,294,294,295,295,296,296,297,297,299,299,303,303,304,304,305,305,306,306,307,307,308,308,309,309,310,310,311,311,315,315,316,316,319,319,320,320,322,322,323,323,324,324,325,325,326,326,328,328,330,330,332,332,333,333,334,334,335,335,336,336,337,337,338,338,340,340,341,341,342,342,343,343,344,344,347,347,351,351,352,352,353,353,354,354,357,357,359,359,360,360,362,362,363,363,368,368,369,369,371,371,374,374,377,377,378,378,383,383,384,384,385,385,386,386,389,389,390,390,391,391,392,392,393,393,395,395,396,396,398,398,399,399,400,400,401,401,403,403,404,404,406,406,408,408,409,409,413,413,414,414,415,415,416,416,417,417,420,420,423,423,425,425,426,426,427,427,428,428,430,430,434,434,436,436,437,437,438,438,439,439,440,440,441,441,442,442,443,443,444,444,446,446,447,447,448,448,449,449,451,451,452,452,453,453,454,454,455,455,456,456,457,457,459,459,460,460,461,461,462,462,463,463,464,464,465,465,467,467,468,468,471,471,472,472,475,475,476,476,477,477,479,479,483,483,484,484,486,486,487,487,488,488,493,493,494,494,497,497,498,498,499,499,500,500,501,501,502,502,504,504,506,506,511,511,512,512,514,514,517,517,518,518,519,519,524,524,525,525,527,527,528,528,529,529,531,531,535,535,537,537,538,538,539,539,540,540,543,543,544,544,545,545,546,546,547,547,551,551,553,553,554,554,556,556,558,558,566,566,570,570,572,572,576,576,577,577,578,578,579,579,580,580,583,583,584,584,588,588,589,589,590,590,593,593,595,595,597,597,598,598,599,599,600,600,601,601,602,602,603,603,604,604,606,606,607,607,608,608,609,609,611,611,612,612,613,613,614,614,615,615,616,616,618,618,621,621,622,622,624,624,626,626,627,627,628,628,629,629,630,630,631,631,632,632,633,633,634,634,636,636,637,637,638,638,639,639,640,640,642,642,643,643,644,644,646,646,647,647,648,648,649,649,650,650,651,651,652,652,653,653,654,654,657,657,659,659,660,660,663,663,664,664,665,665,666,666,673,673,675,675,677,677,679,679,682,682,683,683,685,685,687,687,688,688,689,689,690,690,691,691,692,692,693,693,694,694,695,695,696,696,697,697,699,699,700,700,701,701,703,703],"right_children":[2,4,6,8,10,12,14,16,18,20,22,24,26,28,30,32,34,36,38,40,-1,42,-1,44,46,48,-1,50,52,-1,54,56,58,60,62,64,66,68,70,-1,72,74,76,78,80,-1,-1,82,-1,84,86,-1,90,92,-1,94,96,98,100,102,104,106,108,110,-1,112,114,116,118,120,122,124,126,-1,128,-1,-1,130,132,134,136,-1,-1,138,140,-1,-1,-1,-1,142,144,146,148,150,152,154,156,158,160,162,164,166,168,170,172,-1,174,176,178,-1,180,182,184,-1,186,188,190,192,194,-1,-1,196,198,200,202,204,206,-1,208,210,212,214,216,218,220,222,224,-1,226,228,230,232,234,236,-1,-1,238,-1,242,244,-1,246,248,250,252,254,256,258,260,262,264,266,268,270,272,274,276,278,280,-1,282,284,-1,286,288,290,292,294,296,-1,-1,-1,298,-1,300,302,304,306,308,310,312,314,316,318,-1,320,322,324,326,-1,328,-1,-1,330,332,334,336,-1,-1,338,340,342,344,-1,346,-1,348,350,352,354,-1,358,-1,360,362,364,-1,-1,366,-1,-1,-1,368,-1,370,372,374,-1,-1,-1,-1,-1,376,-1,-1,378,-1,380,-1,382,-1,-1,-1,-1,-1,-1,384,386,-1,-1,-1,-1,-1,388,-1,-1,-1,-1,-1,390,392,394,396,398,400,402,-1,404,406,408,410,-1,-1,-1,412,-1,-1,-1,414,-1,416,418,420,422,424,426,428,430,-1,432,-1,-1,-1,434,436,438,440,442,444,446,448,450,-1,-1,-1,452,454,-1,-1,456,458,-1,460,462,464,466,468,-1,470,-1,472,-1,474,476,478,480,482,484,486,-1,488,490,492,494,496,-1,-1,498,-1,-1,-1,500,502,504,506,-1,-1,508,-1,510,512,-1,514,516,-1,-1,-1,-1,518,520,-1,522,-1,-1,524,-1,-1,526,528,-1,-1,-1,-1,530,532,534,536,-1,-1,538,540,542,544,546,-1,548,550,-1,552,554,556,558,-1,560,562,-1,564,-1,566,568,-1,-1,-1,570,572,574,576,578,-1,-1,580,-1,-1,582,-1,584,586,588,590,-1,592,-1,-1,-1,594,-1,596,598,600,602,604,606,608,610,612,-1,614,616,618,620,-1,622,624,626,628,630,632,634,-1,636,638,640,642,644,646,648,-1,650,652,-1,-1,654,656,-1,-1,658,660,662,-1,664,-1,-1,-1,666,668,-1,670,672,674,-1,-1,-1,-1,676,678,-1,-1,680,682,684,686,688,690,-1,692,-1,694,-1,-1,-1,-1,696,698,-1,700,-1,-1,702,704,706,-1,-1,-1,-1,-1,710,-1,-1,714,716,-1,718,-1,-1,-1,720,-1,722,724,726,728,-1,-1,730,732,734,736,738,-1,-1,-1,740,-1,742,744,-1,746,-1,748,-1,-1,-1,-1,-1,-1,-1,750,-1,-1,-1,752,-1,754,-1,-1,-1,756,758,-1,762,764,-1,-1,766,768,-1,-1,-1,770,772,774,-1,-1,776,-1,778,-1,780,782,784,786,788,790,792,794,-1,796,798,800,802,-1,804,806,808,810,812,814,-1,816,-1,-1,818,820,-1,822,-1,824,826,828,830,832,834,836,838,840,-1,842,844,846,848,-1,-1,852,854,856,-1,858,860,862,864,866,868,870,872,874,-1,-1,876,-1,878,880,-1,-1,882,884,886,888,-1,-1,-1,-1,-1,-1,890,-1,892,-1,894,-1,896,-1,-1,898,900,-1,902,-1,904,906,908,910,912,914,916,918,920,922,924,-1,926,928,930,-1,932,-1,-1,-1,-1,-1,-1,-1,-1,-1,-1,-1,-1,-1,-1,-1,-1,-1,-1,-1,-1,-1,-1,-1,-1,-1,-1,-1,-1,-1,-1,-1,-1,-1,-1,-1,-1,-1,-1,-1,-1,-1,-1,-1,-1,-1,-1,-1,-1,-1,-1,-1,-1,-1,-1,-1,-1,-1,-1,-1,-1,-1,-1,-1,-1,-1,-1,-1,-1,-1,-1,-1,-1,-1,-1,-1,-1,-1,-1,-1,-1,-1,-1,-1,-1,-1,-1,-1,-1,-1,-1,-1,-1,-1,-1,-1,-1,-1,-1,-1,-1,-1,-1,-1,-1,-1,-1,-1,-1,-1,-1,-1,-1,-1,-1,-1,-1,-1,-1,-1,-1,-1,-1,-1,-1,-1,-1,-1,-1,-1,-1,-1,-1,-1,-1,-1,-1,-1,-1,-1,-1,-1,-1,-1,-1,-1,-1,-1,-1,-1,-1,-1,-1,-1,-1,-1,-1,-1,-1,-1,-1,-1,-1,-1,-1,-1,-1,-1,-1,-1,-1,-1,-1,-1,-1,-1,-1,-1,-1,-1,-1,-1,-1,-1,-1,-1,-1,-1,-1,-1,-1,-1,-1,-1,-1,-1,-1,-1,-1,-1,-1,-1,-1,-1,-1,-1,-1,-1,-1,-1,-1,-1,-1,-1,-1,-1,-1,-1,-1,-1,-1,-1,-1,-1,-1,-1,-1,-1,-1,-1],"split_conditions":[2.5E0,4.825E2,9.6615005E1,4.1945E1,9.34E1,9.6295E1,4.105E2,2.225E2,5.95E1,9.2575E1,6.25E1,4.995E2,5.95E1,1.635E2,9.6975006E1,1.075E2,3.055E2,4.9739998E1,5.05E1,1.85E1,-1.5800008E-1,4.945E2,-1.2746698E-1,2.65E1,5.4144997E1,9.6494995E1,3.041388E-2,1.455E2,1.865E2,1.04720265E-1,9.9384995E1,7.65E1,3.05E1,4.0190002E1,3.1695E1,5.55E1,6.8235E1,4.55E1,6.15E1,-1.1256036E-1,3.8245003E1,9.499E1,5E-1,4.595E2,4.625E2,1.4524015E-2,-1.0412663E-1,3.65E2,-1.3196386E-1,4.35E1,3.5E0,1.4119464E-1,5.15E1,3.95E1,3.560395E-2,2.65E1,5E-1,1.5E0,3.35E1,3.5175E1,4.05E1,3.215E2,3.625E2,4.428E1,4.841901E-2,5.941E1,7.036E1,4.655E2,4.685E2,7.8634995E1,7.4625E1,4.965E2,5.4025E1,1.12112775E-1,9.7395004E1,1.9432E-1,7.2445616E-2,2.35E1,4.675E2,4.565E2,3.4934998E1,-8.2930945E-2,1.579303E-2,2.25E1,9.8465E1,-8.645336E-2,-2.1920225E-2,1.11351244E-1,1.7547357E-1,4.15E1,3.77E2,9.771E1,4.365E2,2.35E1,6.95E1,9.35E1,2.85E1,2.85E1,2.15E1,3.5265E1,1.945E2,5.65E1,3.758E1,2.35E1,4.1375E1,-1.0872137E-1,3.545E2,4.55E1,3.725E2,-5.6920177E-3,3.85E1,5.15E1,5.25E1,-1.2986103E-1,5.05E1,3.225E2,4.15E1,4.3095E1,1.5E0,-6.5664165E-2,-1.3809237E-1,7.2994995E1,9.85E1,3.1814999E1,4.25E1,4.9905E1,4.925E2,-7.915969E-2,9.886E1,9.1715E1,7.85E1,2.15E1,3.6475E1,3.0205E1,8.507E1,5.95E1,3.5E0,-4.532875E-2,9.8770004E1,9.7155E1,9.911E1,9.6975006E1,9.7285E1,9.8325E1,1.1197928E-1,3.0329017E-2,9.8535E1,-3.860858E-2,4.545E2,3.671E1,-1.539609E-1,4.0895E1,3.8125E1,5.75E1,4.15E1,3.558E1,3.45E1,4.0795E1,3.6379997E1,1.695E2,1.955E2,3.207E1,1.595E2,3.8745003E1,3.6925E1,3.55E1,2.845E2,3.6385002E1,5.35E1,3.2759808E-2,2.795E2,4.0480003E1,8.8816635E-2,3.405E2,3.0224998E1,3.2315002E1,3.415E2,3.6019997E1,3.8045E1,-1.155106E-1,-5.2394066E-2,-6.540166E-2,6.05E1,1.1816938E-1,5.7E1,8.6985E1,1.5E0,2.865E2,3.295E2,8.1634995E1,4.45E1,4.2614998E1,1.575E2,7.4195E1,1.3157938E-1,1.495E2,7.31E1,8.5285E1,7.8715E1,1.3582531E-2,3.65E1,4.3610543E-2,-8.120279E-3,3.975E1,3.25E1,4.905E2,8.6065E1,7.131922E-2,-1.6839515E-2,8.9244995E1,9.2395004E1,6.45E1,9.35E1,-1.7391638E-1,5.7614998E1,5.467328E-2,4.955E2,2.295E2,3.1175E1,5.4675E1,5.6518402E-2,4.55E1,-1.1353833E-1,2.95E1,3.7440002E1,1.175E2,1.421618E-1,-5.8731955E-2,9.95E1,-1.2318158E-1,-1.928526E-2,1.0098743E-1,9.7205E1,4.9715642E-2,9.935E1,9.794E1,2.275E2,-1.253628E-1,1.4579283E-2,-4.723954E-2,-2.5290621E-2,-1.5927273E-1,5.05E1,-7.165469E-2,9.367827E-3,5.25E1,-8.275187E-2,3.3805E1,5.7397867E-3,4.15E1,2.1765874E-1,1.124135E-1,-5.7569142E-2,9.553319E-2,2.907697E-2,-8.157274E-2,5.55E1,1.395E2,6.1521653E-2,-1.2597795E-1,-1.9763494E-2,1.6383372E-2,-7.698721E-2,2.55E1,1.787894E-2,1.1651259E-1,-8.6369306E-2,4.4172462E-2,1.2560023E-1,4.75E1,4.15E1,3.5309998E1,3.939E1,2.395E2,2.645E2,1.5E0,1.7010579E-1,3.5745003E1,5E-1,2.25E1,3.8915E1,1.8076149E-1,9.838958E-2,9.827919E-2,2.69E2,-1.11223655E-2,7.2720274E-2,-9.352462E-2,3.45E1,5.0130215E-2,3.3815002E1,3.375E2,5.15E1,4.75E1,3.685E2,4.745E2,2.55E1,5.228E1,1.3688958E-1,5.65E1,1.00775495E-1,-5.079348E-2,8.702873E-4,2.75E1,2.65E1,7.4354996E1,3.45E1,6.5375E1,1.85E1,4.5375E1,4.745E2,7.7905E1,-2.462073E-2,-4.8350736E-2,1.5566531E-1,1.045E2,3.635E2,-5.8864597E-2,2.236088E-2,5E-1,7.2755005E1,-1.4014561E-1,7.3535E1,7.9875E1,9.2485E1,7.8615005E1,1.095E2,-1.543736E-1,4.95E1,9.06886E-2,4.945E2,4.949972E-3,4.935E2,7.4265E1,5.45E1,8.3465E1,5E-1,8.8085E1,1.95E1,-1.4967196E-1,3.5E0,3.5E0,6.878E1,1.245E2,2.54E2,-1.2322017E-1,2.3657216E-2,7.3085E1,2.9362082E-2,-9.043829E-3,-8.715187E-2,2.895E2,5.7555E1,3.65E1,6.0989998E1,2.7814435E-2,7.453982E-2,3.279E1,4.327397E-2,4.84E2,5.55E1,1.08283445E-1,2.85E1,3.35E1,1.3749339E-1,2.4514548E-2,1.3233271E-1,-7.132572E-2,3.5E0,9.8945E1,-8.165009E-2,9.7375E1,-8.215434E-2,1.7212012E-1,9.8854996E1,-1.3660794E-1,-3.205779E-2,3.6440002E1,6.15E1,-6.0004867E-3,-1.533221E-1,9.892272E-2,-3.5434764E-2,4.95E1,3.8045E1,1.195E2,2.55E1,-1.8621704E-1,-8.746374E-2,1.435E2,1.155E2,1.53E2,1.595E2,3.229E1,-1.5272537E-1,1.5E0,5.05E1,1.1725852E-1,3.4455E1,2.445E2,2.765E2,6.15E1,1.1343841E-1,3.5455E1,2.595E2,-1.48735745E-2,1.5E0,-5.1631734E-2,2.375E2,2.645E2,-8.0967695E-2,-6.4216256E-2,-1.0760609E-3,4.135E2,3.0605E1,2.95E1,3.461E1,6.35E1,1.2354917E-1,8.403989E-2,3.7364998E1,1.650053E-1,4.5495506E-2,4.45E1,1.0250199E-1,4.275E2,3.6199997E1,3.9245003E1,3.9519997E1,9.8734364E-2,5.6555E1,-5.403271E-3,8.824901E-2,9.114774E-2,9.5225006E1,-7.27949E-2,5.45E1,7.2075E1,3.95E1,5.9059998E1,3.65E1,4.7275E1,7.882E1,9.3020004E1,8.6115005E1,1.4151332E-2,5E-1,9.244E1,8.659E1,4.745E2,1.1837179E-1,4.65E1,1.085E2,4.434E1,4.545E2,5.95E1,6.45E1,4.3075E1,9.075022E-2,2.43E2,6.15E1,7.7630005E1,5E-1,8.943E1,6.75E1,3.555E2,1.4625187E-1,1.055E2,1.205E2,-4.121151E-2,-9.395079E-2,4.5635002E1,4.975E2,1.3889983E-1,2.449812E-2,7.21E1,3.45E1,5E-1,-6.5889575E-2,7.2125E1,-1.3199052E-1,7.404825E-2,-1.0124819E-2,3.208E1,2.05E1,3.4631568E-3,1.965E2,2.79E2,2.05E1,4.9303077E-2,-4.1251983E-2,1.7597151E-1,2.7401032E-2,1.145E2,9.2380005E1,1.3357486E-1,6.7768926E-3,6.729E1,8.28E1,6.25E1,4.155E2,5.5245003E1,5.9045E1,9.512726E-2,4.595E2,-1.9253077E-1,4.75E1,9.33818E-3,-1.3250846E-1,-1.07622124E-1,4.8798867E-2,9.24E1,4.955E2,9.505446E-2,4.705E2,9.677146E-2,-7.455111E-2,3.55E1,3.585E2,2.865E2,2.2494474E-2,-1.8471057E-2,1.3269113E-1,7.722388E-2,2.04937E-3,3.2855003E1,1.4132479E-1,-6.255306E-2,3.585E1,3.5754997E1,1.2239354E-1,3.233E1,2.4054939E-2,-1.7155603E-2,6.4725876E-2,1.745E2,-1.0052122E-1,3.184E1,1.575E2,3.4655E1,3.4775E1,-1.23726614E-1,-4.6140477E-2,4.1010002E1,5.65E1,2.045E2,3.3035E1,5.15E1,1.53846E-1,-1.4718416E-1,-3.417071E-2,3.05E1,1.2333295E-1,2.335E2,3.3075E1,-9.663532E-2,3.3515E1,-3.2600284E-2,3.341E1,1.0486801E-4,-1.09546036E-1,-6.7852945E-3,1.03463285E-1,-1.1947888E-1,-5.277669E-2,4.953051E-3,3.9145E1,5.6521773E-2,-5.5148643E-2,-4.8981458E-2,2.55E1,3.1941663E-2,3.775E2,-2.288267E-2,-1.3320948E-1,1.06064536E-1,3.455E2,3.357E1,8.516663E-2,3.515E2,3.9605E1,4.481258E-2,-8.081319E-2,3.6434998E1,4.65E1,-1.00231946E-1,1.1754556E-2,-1.383582E-1,4.335E2,3.867E1,6.25E1,-5.7185896E-2,1.039914E-2,8.8815E1,9.2068516E-2,5.55E1,-2.4759827E-2,2.35E1,7.31E1,7.9545E1,9.3965E1,5.0644997E1,3.205E2,3.025E2,9.7E1,-7.0579113E-3,3.65E1,3.45E1,8.4905E1,7.359E1,-4.6457086E-2,8.2134995E1,8.756E1,5.0645E1,7.606E1,8.8245E1,4.695E2,1.17271915E-1,4.795E2,7.062332E-2,-2.3361977E-2,7.2825E1,8.05E1,1.0607378E-1,1.475E2,-1.0634667E-1,3.375E2,7.8345E1,1.5E0,1.055E2,6.0445E1,5.95E1,1.115E2,5.45E1,7.1354996E1,-8.548662E-2,3.71E2,5.45E1,6.75E1,7.65E1,-4.5398325E-3,1.8073341E-1,8.1555E1,8.678999E1,9.0455E1,1.3714524E-1,8.65E1,7.579E1,7.5229996E1,8.6850006E1,8.721E1,9.0005005E1,7.9115005E1,4.2475E1,4.885E2,-1.1905497E-1,-2.7556874E-2,5.6525E1,1.0118016E-1,8.1869995E1,4.15E1,1.506966E-1,2.673885E-2,3.05E1,7.4395004E1,3.132E1,3.2625E1,-2.5374807E-2,-9.3449086E-2,2.599291E-2,1.4506514E-1,7.5731605E-2,-2.931484E-2,2.525E2,-1.0765451E-1,1.065E2,-1.3690987E-1,9.030499E1,-1.1839337E-1,5.9239998E1,5.9776474E-2,-1.4370516E-1,4.835E2,3.5E0,1.3822082E-1,3.0575E1,7.568231E-2,5.5055E1,4.265E2,7.85E1,5.9395E1,5.75E1,5.3E1,7.334E1,5.75E1,4.09E1,4.25E1,9.0630005E1,9.95009E-2,4.645E2,4.442E1,9.8785E1,1.3013317E-1,3E2,9.302893E-2,-1.1370571E-2,-6.2466398E-2,2.4564924E-2,-2.0046378E-2,7.624334E-2,-3.479004E-2,-3.4515273E-2,-8.363966E-2,9.056723E-2,3.4515657E-2,-2.8930098E-2,3.7867043E-2,3.0906443E-4,-6.745036E-2,-4.184388E-2,3.1656537E-2,-7.207116E-2,2.2197736E-2,1.3673703E-1,4.221226E-2,-4.540271E-2,-1.1755777E-1,-3.4464777E-2,3.1053023E-2,-6.6008754E-2,9.243512E-3,-2.7964069E-2,6.540249E-2,-1.7250483E-1,-4.389495E-2,8.339251E-2,-5.996302E-2,1.5099699E-2,8.590559E-2,-1.6078457E-2,4.7222175E-2,2.2163417E-2,-7.307647E-2,4.0834192E-2,1.1173177E-1,5.104406E-2,-7.3006995E-2,1.17559776E-1,7.917148E-3,1.0484288E-1,2.5211956E-2,9.961856E-2,4.186138E-2,6.2836036E-2,-8.5815966E-2,-4.5797992E-2,7.1295747E-3,7.820261E-2,-1.7370587E-2,5.9427854E-2,9.9530354E-2,-1.6294195E-1,-2.9689843E-2,3.8478717E-2,-7.448945E-2,1.3292727E-2,-5.8660407E-2,5.933089E-2,4.8728804E-3,-2.5443833E-2,3.9762493E-2,4.9005013E-2,1.1857689E-1,1.7033752E-4,1.3168383E-1,4.3616574E-2,-4.8384115E-2,7.222256E-2,1.8748183E-2,-1.7175922E-2,5.9882617E-3,7.6058194E-2,1.4858716E-2,-4.9813353E-2,-1.2592075E-2,3.1923966E-3,4.6811152E-2,-3.2484338E-2,-1.130474E-1,-3.8163763E-2,9.297214E-2,9.319865E-2,-1.5244066E-2,-2.0375393E-2,-1.2759267E-1,5.546859E-2,1.7220047E-1,7.016215E-3,-1.20013766E-1,1.594668E-1,2.116187E-2,2.4051154E-2,1.028667E-1,-1.5783255E-3,3.913575E-2,-5.442977E-2,-6.5246983E-3,-9.924526E-2,-8.835994E-3,-8.1708536E-2,-1.6308813E-1,-2.3135446E-2,-1.355845E-1,-4.476752E-2,1.4353599E-2,-1.9603059E-2,7.4024424E-2,-1.526595E-1,-2.407345E-2,1.3532574E-2,-4.3934036E-2,-5.9374445E-3,5.788875E-2,-2.4652218E-2,-5.8118545E-2,9.81611E-3,-2.8096331E-2,-2.3071919E-2,-1.0610958E-1,-4.1904364E-2,3.2975715E-2,-1.0269796E-1,-7.1901074E-3,-6.512659E-3,-4.8281338E-2,-1.6789325E-2,4.9487725E-2,2.4740156E-2,-6.11186E-2,3.5258047E-3,-3.2485016E-2,9.5328584E-2,1.7641285E-2,-3.3766687E-2,-1.0120886E-1,1.169167E-2,-6.500579E-2,8.629839E-3,1.1027904E-1,1.7883169E-2,-2.7092014E-2,1.7096692E-1,1.1419068E-2,-6.338492E-2,6.525365E-2,-1.050198E-1,-2.7361456E-2,-1.9912077E-3,1.07989594E-1,-4.2189706E-2,1.7166767E-2,1.5773612E-1,2.7501507E-2,-5.5477596E-3,-4.6845127E-2,-6.3115336E-2,-1.532062E-1,8.435153E-4,1.252066E-1,-7.5010724E-2,-5.65273E-4,1.5977893E-2,-9.493452E-2,-3.8757283E-2,1.1531285E-1,4.562103E-2,-2.4234891E-2,-6.2654816E-2,-1.3308409E-1,6.0673907E-2,-5.2348163E-2,-7.0481296E-3,-1.004538E-1,6.125061E-2,-3.0679127E-2,-2.033554E-2,-9.424579E-2,1.5268624E-1,7.498661E-3,6.3460334E-3,-5.0464723E-2,-5.6766752E-2,1.7376814E-2,-2.0260127E-2,8.331752E-2,-1.3513961E-2,-6.9453746E-2,5.4606006E-2,-9.9889405E-2,1.5590102E-2,8.580117E-2,2.745906E-2,-6.555983E-2,1.2751037E-4,9.06758E-2,-2.4127787E-2,-1.3258684E-1,-7.355971E-2,5.0049447E-2,-7.415431E-2,4.0581874E-3,-6.628569E-2,-1.04974E-2,-9.7093545E-3,4.5600694E-2,-6.022006E-2,-9.309214E-3,-1.6979213E-1,-4.490815E-2,9.97644E-2,3.7027188E-2,8.228223E-2,1.7573394E-1,7.6707997E-3,-1.00507185E-1,-3.911809E-2,5.0609272E-2,-6.168226E-2,-5.288567E-3,8.3313994E-2,-3.5425674E-2,1.1281926E-2,-8.045532E-2],"split_indices":[2,5,4,4,4,4,5,5,5,4,0,5,0,5,4,5,5,4,0,0,0,5,0,0,4,4,0,5,5,0,4,5,0,4,4,0,4,0,5,0,4,4,2,5,5,0,0,5,0,0,2,0,0,0,0,0,2,2,0,4,0,5,5,4,0,4,4,5,5,4,4,5,4,0,4,0,0,0,5,5,4,0,0,0,4,0,0,2147483647,2147483647,0,5,4,5,0,5,5,0,0,0,4,5,0,4,0,4,0,5,0,5,0,0,5,5,0,5,5,0,4,2,0,0,4,5,4,0,4,5,0,4,4,5,0,4,4,4,0,2,0,4,4,4,4,4,4,0,0,4,4,5,4,0,4,4,0,0,4,0,4,4,5,5,4,5,4,4,0,5,4,0,0,5,4,0,5,4,4,5,4,4,0,0,0,0,0,0,4,2,5,5,4,0,4,5,4,0,5,4,4,4,0,0,0,0,4,0,5,4,0,0,4,4,5,4,0,4,0,5,5,4,4,0,0,0,0,4,5,0,0,5,0,0,0,4,0,4,4,5,0,0,2147483647,2147483647,0,0,0,0,0,0,4,0,0,0,0,0,0,0,0,0,5,0,0,0,0,0,0,0,0,0,0,0,0,0,4,4,5,5,2,0,4,2,0,4,0,0,0,5,0,0,0,0,0,4,5,0,0,5,5,0,4,0,5,0,0,0,0,0,4,0,4,0,4,5,4,0,0,0,5,5,0,0,2,4,0,4,4,4,4,5,0,0,0,5,0,5,4,0,4,2,4,0,0,2,2,4,5,5,0,0,4,0,0,0,5,4,0,4,2147483647,2147483647,4,0,5,0,0,0,0,0,0,0,0,2,4,0,4,0,0,4,0,0,4,0,0,0,0,0,0,4,5,0,0,0,5,5,5,5,4,0,2,0,0,4,5,5,0,0,4,5,0,2,0,5,5,0,0,0,5,4,0,4,0,0,0,4,0,0,0,0,5,4,4,4,0,4,0,0,0,4,0,0,4,0,4,0,4,4,4,4,0,2,4,4,5,0,0,5,4,5,0,0,4,0,5,0,4,2,4,5,5,0,5,5,0,0,4,5,0,0,4,0,2,0,4,0,0,0,4,0,0,5,5,0,0,0,0,0,5,4,0,0,4,4,0,5,4,4,0,5,0,0,0,0,0,0,4,5,0,5,0,0,0,5,5,0,0,0,0,5,4,0,4,4,4,0,4,0,0,0,5,0,4,5,4,4,0,0,4,0,5,4,0,0,0,0,0,0,5,4,0,4,0,4,0,0,0,0,0,0,0,4,0,0,0,0,0,5,0,0,0,5,4,4,5,4,0,0,4,0,0,0,0,5,4,0,0,0,4,0,5,0,0,4,4,4,4,5,5,4,0,0,0,4,4,0,4,4,4,4,4,5,0,5,0,0,4,5,0,5,0,5,4,2,5,4,0,5,0,4,0,5,0,0,5,5,0,4,4,4,0,5,4,4,4,4,4,4,4,5,0,0,4,0,4,0,0,0,0,4,4,4,0,0,0,0,0,0,5,0,5,0,4,0,4,0,0,5,2,0,4,0,4,5,5,4,0,0,4,0,4,0,4,0,5,4,4,0,5,0,0,0,2147483647,2147483647,0,0,2147483647,2147483647,0,0,0,0,0,0,0,0,0,0,0,0,0,0,0,0,0,0,0,0,0,0,0,0,0,0,0,0,0,0,0,0,0,0,0,0,0,0,0,0,0,0,0,0,0,0,2147483647,2147483647,0,0,0,0,0,0,0,0,0,0,0,0,0,0,0,0,0,0,0,0,0,0,0,0,0,0,0,0,0,0,0,0,0,0,0,0,0,0,0,0,0,0,0,0,0,0,0,0,0,0,0,0,0,0,0,0,0,0,0,0,0,0,0,0,0,0,0,0,0,0,0,0,0,0,0,0,0,0,0,0,0,0,0,0,0,0,0,0,2147483647,2147483647,0,0,0,0,0,0,0,0,0,0,0,0,0,0,0,0,0,0,0,0,0,0,0,0,0,0,0,0,0,0,0,0,0,0,0,0,0,0,0,0,0,0,0,0,0,0,0,0,0,0,0,0,0,0,0,0,0,0,0,0,0,0,0,0,0,0,0,0,0,0,0,0,0,0,0,0,0,0,0,0,0,0],"split_type":[0,0,0,0,0,0,0,0,0,0,0,0,0,0,0,0,0,0,0,0,0,0,0,0,0,0,0,0,0,0,0,0,0,0,0,0,0,0,0,0,0,0,0,0,0,0,0,0,0,0,0,0,0,0,0,0,0,0,0,0,0,0,0,0,0,0,0,0,0,0,0,0,0,0,0,0,0,0,0,0,0,0,0,0,0,0,0,0,0,0,0,0,0,0,0,0,0,0,0,0,0,0,0,0,0,0,0,0,0,0,0,0,0,0,0,0,0,0,0,0,0,0,0,0,0,0,0,0,0,0,0,0,0,0,0,0,0,0,0,0,0,0,0,0,0,0,0,0,0,0,0,0,0,0,0,0,0,0,0,0,0,0,0,0,0,0,0,0,0,0,0,0,0,0,0,0,0,0,0,0,0,0,0,0,0,0,0,0,0,0,0,0,0,0,0,0,0,0,0,0,0,0,0,0,0,0,0,0,0,0,0,0,0,0,0,0,0,0,0,0,0,0,0,0,0,0,0,0,0,0,0,0,0,0,0,0,0,0,0,0,0,0,0,0,0,0,0,0,0,0,0,0,0,0,0,0,0,0,0,0,0,0,0,0,0,0,0,0,0,0,0,0,0,0,0,0,0,0,0,0,0,0,0,0,0,0,0,0,0,0,0,0,0,0,0,0,0,0,0,0,0,0,0,0,0,0,0,0,0,0,0,0,0,0,0,0,0,0,0,0,0,0,0,0,0,0,0,0,0,0,0,0,0,0,0,0,0,0,0,0,0,0,0,0,0,0,0,0,0,0,0,0,0,0,0,0,0,0,0,0,0,0,0,0,0,0,0,0,0,0,0,0,0,0,0,0,0,0,0,0,0,0,0,0,0,0,0,0,0,0,0,0,0,0,0,0,0,0,0,0,0,0,0,0,0,0,0,0,0,0,0,0,0,0,0,0,0,0,0,0,0,0,0,0,0,0,0,0,0,0,0,0,0,0,0,0,0,0,0,0,0,0,0,0,0,0,0,0,0,0,0,0,0,0,0,0,0,0,0,0,0,0,0,0,0,0,0,0,0,0,0,0,0,0,0,0,0,0,0,0,0,0,0,0,0,0,0,0,0,0,0,0,0,0,0,0,0,0,0,0,0,0,0,0,0,0,0,0,0,0,0,0,0,0,0,0,0,0,0,0,0,0,0,0,0,0,0,0,0,0,0,0,0,0,0,0,0,0,0,0,0,0,0,0,0,0,0,0,0,0,0,0,0,0,0,0,0,0,0,0,0,0,0,0,0,0,0,0,0,0,0,0,0,0,0,0,0,0,0,0,0,0,0,0,0,0,0,0,0,0,0,0,0,0,0,0,0,0,0,0,0,0,0,0,0,0,0,0,0,0,0,0,0,0,0,0,0,0,0,0,0,0,0,0,0,0,0,0,0,0,0,0,0,0,0,0,0,0,0,0,0,0,0,0,0,0,0,0,0,0,0,0,0,0,0,0,0,0,0,0,0,0,0,0,0,0,0,0,0,0,0,0,0,0,0,0,0,0,0,0,0,0,0,0,0,0,0,0,0,0,0,0,0,0,0,0,0,0,0,0,0,0,0,0,0,0,0,0,0,0,0,0,0,0,0,0,0,0,0,0,0,0,0,0,0,0,0,0,0,0,0,0,0,0,0,0,0,0,0,0,0,0,0,0,0,0,0,0,0,0,0,0,0,0,0,0,0,0,0,0,0,0,0,0,0,0,0,0,0,0,0,0,0,0,0,0,0,0,0,0,0,0,0,0,0,0,0,0,0,0,0,0,0,0,0,0,0,0,0,0,0,0,0,0,0,0,0,0,0,0,0,0,0,0,0,0,0,0,0,0,0,0,0,0,0,0,0,0,0,0,0,0,0,0,0,0,0,0,0,0,0,0,0,0,0,0,0,0,0,0,0,0,0,0,0,0,0,0,0,0,0,0,0,0,0,0,0,0,0,0,0,0,0,0,0,0,0,0,0,0,0,0,0,0,0,0,0,0,0,0,0,0,0,0,0,0,0,0,0,0,0,0,0,0,0,0,0,0,0,0,0,0,0,0,0,0,0,0,0,0,0,0,0,0,0,0,0,0,0,0,0,0,0],"sum_hessian":[2.2494998E4,1.3521902E4,8.973095E3,1.2974538E4,5.4736426E2,8.533812E3,4.3928247E2,2.2119812E3,1.0762558E4,4.8586658E2,6.149772E1,8.496391E3,3.7420967E1,3.441249E2,9.515755E1,8.996805E2,1.3123008E3,2.5519551E2,1.0507361E4,4.7836676E2,7.499796E0,5.374806E1,7.749663E0,8.474894E3,2.1496998E1,2.8690845E1,8.730121E0,1.0787755E2,2.3624738E2,8.490011E0,8.6667534E1,3.1414355E2,5.855369E2,4.1511774E2,8.9718304E2,3.623784E1,2.1895767E2,6.5330273E3,3.9743342E3,1.0248806E1,4.6811795E2,3.674949E1,1.699857E1,1.4460663E3,7.0288276E3,9.4991E0,1.1997897E1,2.0460806E1,8.23004E0,9.040196E1,1.747558E1,2.0977903E1,2.1526947E2,7.268898E1,1.3978554E1,1.4545268E2,1.6869087E2,1.4494058E2,4.4059637E2,3.511501E2,6.3967632E1,1.2995415E2,7.672289E2,2.474227E1,1.149557E1,7.472022E1,1.4423746E2,5.5584946E3,9.745329E2,1.724683E1,3.9570874E3,5.897937E1,4.0913858E2,7.7499204E0,2.8999567E1,7.4989276E0,9.499642E0,1.3238326E3,1.22233635E2,6.4329204E3,5.959073E2,1.3223846E1,7.2369595E0,4.1456387E1,4.894558E1,9.48862E0,7.98696E0,1.3485633E1,7.4922705E0,1.3860022E2,7.666924E1,3.0226908E1,4.246207E1,2.5491838E1,1.1996084E2,5.3731754E1,1.14959114E2,9.271002E1,5.223056E1,3.498906E1,4.056073E2,1.7673618E2,1.7441391E2,2.5734537E1,3.8233097E1,1.149695E1,1.184572E2,2.5366402E2,5.135649E2,9.249666E0,1.5492603E1,3.9980957E1,3.473927E1,1.1497619E1,1.3273984E2,5.3337944E3,2.2469989E2,9.457873E2,2.8745604E1,7.997058E0,9.249772E0,2.22866E3,1.7284275E3,4.3983418E1,1.4995955E1,1.1518965E2,2.9394894E2,1.3999724E1,1.4999843E1,8.8713605E2,4.3669666E2,2.6494532E1,9.5739105E1,6.332685E3,1.0023538E2,4.596477E1,5.499425E2,7.740911E0,3.3715477E1,2.8722403E1,2.0223175E1,9.514477E1,4.3455452E1,6.393026E1,1.2738986E1,1.0739878E1,1.948703E1,1.4487456E1,2.7974613E1,1.7243845E1,8.247995E0,8.7719215E1,3.2241627E1,2.9739937E1,2.399182E1,2.2738514E1,9.2220604E1,7.5964935E1,1.6745092E1,1.6742935E1,3.5487625E1,1.7497992E1,1.7491068E1,3.0314127E2,1.02466034E2,1.27240395E2,4.949579E1,7.818533E1,9.6228584E1,7.9948034E0,1.7739733E1,2.6486212E1,1.1746885E1,2.3244362E1,9.521284E1,1.3420174E2,1.1946227E2,4.5978165E1,4.6758673E2,7.9968157E0,7.4957876E0,7.9945207E0,3.1986437E1,9.747667E0,2.4991602E1,1.6748589E1,1.1599125E2,3.4789482E3,1.8548464E3,1.9270616E2,3.199373E1,1.9249306E1,9.2653796E2,1.824809E1,1.0497514E1,2.1229224E3,1.0573777E2,1.4624414E2,1.5821833E3,9.997477E0,3.398594E1,7.748509E0,7.2474465E0,8.321419E1,3.1975466E1,1.6397247E2,1.2997647E2,7.4999228E0,7.49992E0,8.264328E2,6.0703236E1,3.0993538E1,4.0570312E2,1.0746644E1,1.5747887E1,9.996441E0,8.574266E1,1.9724663E1,6.3129604E3,8.399207E1,1.6243315E1,3.3220818E1,1.2743951E1,2.8097284E2,2.6896964E2,2.2229593E1,1.1485884E1,8.739658E0,1.9982744E1,7.4911356E0,1.2732039E1,8.991527E0,8.6153244E1,8.738949E0,3.4716503E1,3.4464584E1,2.9465675E1,9.995107E0,9.491923E0,7.2450857E0,7.2423706E0,9.490878E0,1.8483736E1,9.496734E0,7.747111E0,8.047459E1,7.2446265E0,2.1993172E1,1.0248455E1,2.1491407E1,8.2485285E0,1.0244949E1,1.3746869E1,9.247469E0,1.3491045E1,1.1996254E1,8.022435E1,6.747238E1,8.49255E0,9.247963E0,7.49713E0,8.9964285E0,7.7465076E0,2.7990185E1,7.4974413E0,7.248187E0,1.02498045E1,7.2454386E0,1.0245628E1,2.164178E2,8.6723465E1,5.6231632E1,4.62344E1,5.5493294E1,7.17471E1,3.774649E1,1.1749295E1,4.0730904E1,3.7454433E1,6.5734665E1,3.049392E1,1.0492425E1,7.247308E0,7.997979E0,1.8488234E1,1.2997413E1,1.024695E1,1.1472053E1,8.374078E1,7.9998655E0,1.2620187E2,7.1227394E1,4.8234875E1,2.074703E1,2.5231133E1,2.9063483E2,1.7695189E2,2.4739262E1,7.2471757E0,1.7744762E1,7.24684E0,9.248797E0,7.4997907E0,8.0243774E1,3.574747E1,2.9970547E3,4.818934E2,8.198542E1,1.772861E3,1.2495983E2,6.774632E1,2.424444E1,7.7492914E0,1.0999603E1,8.249702E0,2.2269443E2,7.0384357E2,8.998414E0,9.249676E0,4.5332312E2,1.6695991E3,7.499843E0,9.823792E1,6.3747585E1,8.249655E1,2.5098889E2,1.3311945E3,1.2246647E1,2.1739292E1,1.2748282E1,7.0465904E1,9.7428875E0,2.2232578E1,1.3247931E2,3.1493162E1,1.0872954E2,2.124693E1,7.9094196E2,3.5490803E1,7.9999886E0,5.2703247E1,1.6245962E1,1.4747577E1,3.8746445E2,1.8238672E1,7.4985795E0,8.249308E0,7.399333E1,1.1749333E1,7.7421145E0,1.1982548E1,8.9133446E1,6.2238267E3,3.8992104E1,4.499997E1,7.2458134E0,8.9975E0,2.197978E1,1.1241038E1,2.1248074E1,2.597248E2,1.0749992E1,2.5821967E2,1.4737935E1,7.4916573E0,1.0992365E1,8.99038E0,7.4932175E0,7.866003E1,2.7474903E1,7.241601E0,2.2471638E1,1.1992946E1,7.4874377E0,2.1978237E1,7.2430396E0,1.1240696E1,4.7230247E1,3.3244343E1,1.0748656E1,1.1244516E1,1.3994067E1,7.4973407E0,4.598711E1,3.423724E1,1.849302E1,4.8979366E1,1.3492855E1,1.449733E1,8.2965004E1,1.334528E2,1.6493876E1,7.022959E1,4.4992813E1,1.1238819E1,2.3241375E1,2.2993027E1,1.3749735E1,4.174356E1,3.5249405E1,3.6497692E1,2.5998684E1,1.1747808E1,1.674971E1,2.3981192E1,1.2237931E1,2.5216503E1,7.999183E0,5.7735477E1,1.649591E1,1.3998009E1,1.0491076E1,7.997156E0,2.8497286E1,5.5243504E1,2.1249636E1,1.0495224E2,6.1980076E1,9.247323E0,1.1496887E1,3.6737988E1,1.3497761E1,7.24927E0,1.7736742E1,7.4943905E0,2.7014417E2,2.0490686E1,2.6488338E1,1.5046356E2,7.995129E0,1.6744131E1,1.0248032E1,7.4967303E0,1.474866E1,6.549512E1,8.248671E0,2.7498798E1,1.6648638E3,1.3321909E3,2.919294E2,1.89964E2,3.2988987E1,4.899643E1,6.4235344E1,1.7086256E3,1.0999603E1,1.1396023E2,3.5999603E1,3.1746717E1,1.6995512E1,7.2489276E0,1.0122524E2,1.21469185E2,4.6664725E2,2.371963E2,1.4719359E2,3.0612955E2,1.6563499E3,1.3249264E1,2.6748165E1,7.148976E1,3.224798E1,3.1499609E1,3.7247803E1,4.5248753E1,2.4223946E2,8.749442E0,4.4248283E1,1.2869462E3,8.245277E0,1.3494015E1,4.9471733E1,2.0994167E1,1.3990673E1,8.241904E0,7.248158E1,5.999773E1,2.2245018E1,9.248144E0,9.89799E1,9.749641E0,8.2487135E0,1.2998217E1,7.752073E2,1.5734722E1,1.3245438E1,2.2245365E1,2.198358E1,3.0719666E1,7.9993744E0,8.246588E0,7.499071E0,7.248505E0,4.849323E1,3.3897122E2,7.995082E0,1.024359E1,4.499997E1,2.8993362E1,5.6922684E1,3.2210766E1,2.515314E3,3.7085127E3,9.249842E0,2.9742262E1,8.749993E0,3.6249973E1,1.3980732E1,7.9990487E0,1.1498251E1,9.749823E0,1.6523163E2,9.449316E1,1.0748415E1,2.4747124E2,7.244606E0,7.493329E0,4.1713345E1,3.6946682E1,2.0233555E1,7.2413473E0,1.3236363E1,9.235274E0,7.245079E0,1.4733159E1,2.624222E1,2.0988028E1,1.5995479E1,1.7248863E1,3.3491524E1,1.2495586E1,2.3240242E1,1.0996997E1,7.9955306E0,1.0497488E1,3.7234104E1,1.1745261E1,3.4734318E1,4.8230686E1,1.4494586E1,1.1895821E2,7.497521E0,8.996355E0,4.0986626E1,2.924296E1,1.7993237E1,2.6999578E1,1.5993084E1,7.2482905E0,8.748058E0,1.4244968E1,3.4243652E1,7.4999075E0,1.7499722E1,1.7749683E1,1.2999224E1,2.3498468E1,8.499378E0,1.7499306E1,7.4998765E0,9.249834E0,1.0242844E1,1.3738348E1,1.0982999E1,1.4233504E1,9.748152E0,4.7987328E1,8.9965105E0,7.4994E0,1.274979E1,1.5747496E1,1.1994202E1,4.32493E1,8.7498455E0,1.2499791E1,7.4998684E0,9.745237E1,4.548336E1,1.6496714E1,2.0241976E1,1.6496012E1,8.494509E0,9.242233E0,1.4544173E2,1.2470243E2,1.3249564E1,7.2411213E0,7.249471E0,1.9238867E1,5.7494316E1,9.296924E1,9.496026E0,7.2481055E0,5.499522E1,1.0499895E1,1.699956E1,1.049924E1,1.557129E3,1.0773473E2,1.0384548E3,2.9373615E2,9.295819E1,1.989712E2,3.6492676E1,1.5347133E2,7.7497435E0,2.5239244E1,1.9997269E1,2.899916E1,5.5735565E1,8.499783E0,1.3136451E3,3.9498056E2,3.773713E1,7.62231E1,1.8749786E1,1.7249817E1,7.9999156E0,2.3746803E1,8.7477455E0,8.2477665E0,1.9247332E1,8.197791E1,7.497533E0,1.1397165E2,1.1499585E1,4.5514764E2,2.0020552E2,3.699078E1,6.547884E1,8.171474E1,2.1292108E2,9.320845E1,5.2748096E1,1.6036018E3,1.0249652E1,1.6498514E1,4.1994343E1,2.9495417E1,1.7498827E1,1.474915E1,1.0249843E1,2.1249767E1,2.0248367E1,1.6999435E1,7.249925E0,3.7998825E1,1.5799355E2,8.424591E1,2.8748697E1,1.5499585E1,4.1499428E1,1.2454467E3,2.5994535E1,2.3477198E1,1.1497176E1,9.49699E0,6.5232086E1,7.249499E0,1.7999636E1,4.1998093E1,8.999564E0,1.3245454E1,6.098144E1,3.7998455E1,2.6464735E1,7.4874255E2,7.243495E0,8.491227E0,9.497907E0,1.2747459E1,1.2989824E1,8.993756E0,1.6728941E1,1.3990725E1,3.8493732E1,9.999498E0,3.3172418E2,7.2470293E0,3.5999973E1,8.999993E0,1.0499992E1,1.849337E1,4.6436993E1,1.0485689E1,2.4471558E1,7.739206E0,2.2993142E3,2.1599985E2,1.3599991E2,3.572513E3,1.5244895E1,1.4497367E1,1.49999895E1,2.1249985E1,1.5049342E2,1.4738196E1,8.499382E1,9.499338E0,4.924505E1,1.982262E2,3.1972437E1,9.740906E0,2.9208735E1,7.737947E0,8.7417E0,1.1491856E1,7.241909E0,7.49125E0,9.749277E0,1.6492943E1,7.997901E0,7.997577E0,9.74987E0,7.498993E0,1.9499596E1,1.3991928E1,7.4957685E0,1.5744473E1,1.5243121E1,2.1990982E1,8.247487E0,2.6486832E1,1.1994006E1,3.6236683E1,7.2498856E0,7.2447004E0,6.349184E1,5.546637E1,2.6995274E1,1.3991354E1,1.5496251E1,1.3746709E1,7.2463894E0,1.0746847E1,7.999873E0,1.8999704E1,8.4967575E0,7.496327E0,2.274614E1,1.1497515E1,9.249834E0,8.249887E0,9.999833E0,7.749851E0,1.52485895E1,8.24988E0,9.749352E0,7.749953E0,2.8740238E1,1.924709E1,7.999318E0,7.7481775E0,8.499909E0,3.474939E1,7.121423E1,2.6238138E1,1.049985E1,3.4983513E1,7.7487855E0,8.747928E0,8.993951E0,1.1248024E1,8.248628E0,8.247384E0,1.0423671E2,4.120501E1,6.3224102E1,6.147833E1,1.1495528E1,7.7433386E0,2.6747923E1,3.0746393E1,7.8728676E1,1.4240565E1,3.9245384E1,1.5749836E1,9.499898E0,7.499661E0,3.2963217E2,1.227497E3,4.6246674E1,6.148806E1,1.9974196E2,8.387129E2,2.2324051E2,7.0495636E1,4.748033E1,4.547786E1,1.8697383E2,1.1997376E1,1.8495943E1,1.7996735E1,1.4572154E2,7.7497873E0,1.7994928E1,7.244315E0,1.17491E1,8.248169E0,7.499904E0,2.1499256E1,3.473626E1,2.0999304E1,1.1953967E3,1.1824842E2,4.074423E1,3.5423633E2,7.243474E0,3.0493654E1,6.622345E1,9.999649E0,1.1499861E1,7.249925E0,7.249923E0,9.999894E0,1.3496906E1,1.0249896E1,8.247776E0,1.0999555E1,4.0741848E1,4.1236065E1,9.2730064E1,2.1241587E1,4.0191122E2,5.3236435E1,1.3145755E2,6.8747986E1,2.3992172E1,1.2998607E1,3.223797E1,3.324088E1,4.722001E1,3.4494724E1,1.3570256E2,7.721852E1,4.9486023E1,4.372243E1,1.1999567E1,4.074853E1,1.5291064E3,7.449536E1,8.498659E0,7.9998546E0,1.6497232E1,2.5497112E1,2.0247425E1,9.247992E0,8.249155E0,9.249673E0,7.4995694E0,7.2495804E0,8.249905E0,1.2999863E1,7.249478E0,1.2998889E1,7.4999194E0,9.4995165E0,2.4249489E1,1.3749337E1,4.6248005E1,1.1174554E2,1.0499431E1,7.374648E1,1.0749877E1,1.7998821E1,7.2497926E0,8.249792E0,2.1999758E1,1.949967E1,2.5749228E1,1.2196975E3,1.2245032E1,1.3749504E1,9.990942E0,1.3486257E1,8.996671E0,5.6235416E1,7.249889E0,1.0749747E1,7.7496786E0,3.4248417E1,1.6494902E1,4.4486538E1,7.749485E0,3.0248968E1,1.6980639E1,9.4840975E0,8.244936E0,7.404976E2,8.736704E0,7.992237E0,3.099442E1,7.4993124E0,3.2097702E2,1.0747165E1,2.724998E1,8.749993E0,1.1245323E1,7.248047E0,2.5213175E1,2.1223818E1,8.481784E0,1.5989775E1,2.2838142E3,1.5499989E1,1.9999986E2,1.5999989E1,1.0249992E1,1.2574991E2,3.3499977E1,3.539013E3,7.9984436E0,7.2464514E0,7.2475247E0,7.249842E0,7.7499943E0,7.2499948E0,1.0499992E1,1.0749992E1,1.8499987E1,1.3199344E2,7.2461495E0,7.492047E0,7.6996216E1,7.997598E0,1.0498043E1,3.8747005E1,1.9749987E1,1.7847621E2,1.9985443E1,1.1986995E1,1.9969593E1,9.2391405E0],"tree_param":{"num_deleted":"14","num_feature":"6","num_nodes":"933","size_leaf_vector":"0"}},{"base_weights":[-6.859317E-3,-1.8697249E-2,1.0975825E-2,2.2758925E-2,-2.6820999E-2,6.52875E-3,9.712625E-2,1.568345E-2,2.7439567E-1,-7.187124E-2,-2.0572007E-2,7.9093E-3,-3.0785722E-1,-4.3655E-2,1.4466979E-1,2.157248E-2,-2.8000036E-1,3.7331365E-2,4.013087E-1,-6.1177645E-2,-3.593246E-1,4.2336963E-2,-2.822794E-2,7.2566704E-3,3.9655575E-1,-6.993512E-2,-7.0526564E-1,1.6870674E-2,-4.9701375E-1,1.9711392E-1,-1.0240237E-1,8.053629E-3,1.869287E-1,-5.0995654E-1,-1.0800694E-2,-2.920787E-1,2.1622048E-1,8.1209874E-1,2.4458936E-1,-6.6345386E-2,3.1368232E-1,-1.4304921E-1,-5.2181834E-1,1.4072159E-2,2.4165685E-1,-4.309319E-1,-2.5955418E-2,8.000433E-3,-3.5380834E-1,-4.101172E-1,2.622605E-1,-4.749034E-2,1.9708772E-1,4.438328E-1,1.6023113E-1,4.6520254E-1,-1.9162057E-1,1.9781532E-2,-3.0740815E-1,6.187216E-1,1.2437116E-1,-3.0313927E-1,-7.922751E-1,4.328161E-1,-5.99149E-1,-5.7743456E-2,6.7420495E-1,-5.6848243E-2,-2.628803E-1,4.615268E-1,1.3763429E-1,-4.739711E-1,1.8570353E-1,-9.007911E-1,-3.2993266E-1,-5.4142118E-2,8.138872E-2,4.870918E-1,2.0062909E-1,-6.7930746E-1,-3.1485346E-1,1.8082783E-2,-3.2249656E-2,5.969763E-3,1.7599879E-1,-7.9484695E-1,3.431027E-2,5.0764326E-2,-2.5967962E-1,4.020987E-1,-1.4490192E-2,3.010395E-1,7.5820506E-1,1.3212122E-1,3.2311216E-1,-2.538626E-1,9.9241674E-2,-3.3093076E-2,5.8495928E-2,-6.030758E-1,3.913736E-1,8.0094475E-1,2.6170492E-1,2.5944555E-1,-2.3587085E-3,-2.393362E-1,1.8416888E-1,-6.3002706E-2,2.4207942E-1,-4.7204137E-1,5.5475708E-2,-4.3460116E-1,-1.2820292E-1,-3.991037E-2,-4.2586258E-1,6.65108E-1,7.0030816E-2,8.527764E-1,1.4528546E-1,-3.7028813E-1,2.4337578E-1,-1.4041045E-1,-6.957604E-1,-2.7777746E-1,3.2532923E-2,2.8186455E-1,-3.3338968E-2,9.5586665E-3,-9.075797E-2,6.0022444E-1,1.616268E-2,-1.8927667E-1,2.8253725E-1,-6.6853836E-2,-4.6789074E-1,6.4836127E-1,1.9914674E-2,1.511251E-1,-2.990034E-1,6.5919954E-1,1.0926679E-1,-1.5857638E-1,-5.6813085E-1,7.617493E-2,-7.94002E-2,4.9828947E-2,5.79827E-1,-1.7363256E-1,-7.387335E-1,1.6199426E-1,6.1647016E-1,5.047646E-1,1.435197E-1,-5.0605696E-1,7.9974465E-2,-5.543927E-2,-3.2331216E-1,6.7978895E-1,-1.08642176E-1,-7.403385E-1,-2.565789E-1,2.1634322E-1,-3.4281358E-2,-9.891365E-2,2.4710871E-2,-1.5291186E-1,-6.0882545E-1,5.577212E-2,5.3802395E-1,1.8582956E-1,4.448396E-1,-3.1596908E-1,1.3351524E-1,-4.972144E-1,-6.0429994E-2,4.3492356E-1,1.128689E-2,1.4281632E-1,5.5191547E-1,-5.1327294E-1,-3.2787073E-2,4.779065E-3,8.002339E-2,-2.0274901E-1,3.133783E-2,8.909786E-1,1.6180699E-1,-6.918921E-2,3.9877394E-1,-3.383804E-1,-1.0413988E-1,9.740939E-2,5.3927654E-1,4.285968E-1,1.3208032E-1,-1.9713342E-1,3.5332286E-1,-3.560824E-1,2.1172624E-2,-9.1830045E-2,1.9560856E-1,4.3541127E-1,-9.869699E-2,-9.443226E-2,7.793385E-2,1.1480399E0,5.1745925E-2,-8.4664834E-1,-3.8048106E-1,9.4019103E-1,1.4775859E-1,-1.9128904E-1,2.6440078E-1,-1.1896766E-1,4.361616E-1,-6.640345E-2,8.9844696E-2,-4.0061638E-1,-1.501654E-1,-5.1650095E-1,-2.8693618E-3,5.4553647E-2,-1.2688656E-1,2.2422692E-1,-1.6061798E-1,-2.4653293E-1,1.06131755E-1,8.297769E-2,-6.4646535E-2,3.6145338E-1,-8.1902326E-5,7.785332E-1,1.849671E-1,-6.037984E-1,8.114758E-3,-9.109208E-1,-2.2639784E-1,1.3910432E-1,-4.7530213E-1,3.5502514E-1,7.7204853E-1,-4.1586585E-2,6.441338E-2,3.5190848E-1,-1.4223817E-1,2.8084487E-1,-3.3705458E-2,7.476516E-3,-2.8123078E-1,5.0767916E-1,4.6685245E-2,-1.5729557E-1,-5.673728E-1,-3.8432296E-2,1.9123435E-1,-1.3744323E-1,3.4605044E-1,-2.4847677E-1,4.338869E-2,-3.1719607E-1,5.3686124E-1,-2.4209848E-2,1.8468767E-1,-4.689019E-1,-1.9794919E-1,3.450961E-1,-2.2553135E-1,2.3736984E-1,-2.6564297E-1,5.143739E-1,9.6067525E-2,7.111658E-2,6.288556E-1,-1.3412356E-1,4.7182627E-2,5.0628245E-1,-1.5059473E-1,3.9968953E-1,7.025763E-2,-5.61546E-1,-9.469935E-1,-7.472248E-2,5.7112426E-1,-3.508916E-1,-2.877748E-3,7.6616687E-1,2.3044246E-1,-5.7404645E-2,-7.835055E-1,1.7317992E-1,-3.3190706E-1,-7.839082E-1,-1.5848225E-1,3.7546793E-1,-1.7833712E-2,-2.4880579E-1,4.5501996E-2,-2.5416106E-2,-6.274865E-1,-3.2328084E-1,1.4726995E-1,6.334456E-2,9.149721E-1,9.514602E-2,-3.9482296E-1,1.515484E-1,7.655309E-1,8.4224485E-2,-3.6537382E-1,-4.5414266E-1,3.3392277E-2,-1.5276921E-1,4.4745278E-1,4.6844333E-1,6.7281246E-2,-5.911089E-2,7.304317E-1,-3.2715132E-3,1.9887398E-1,4.4997698E-1,1.2879619E-1,-8.092057E-2,-2.7368763E-2,6.856253E-3,4.195593E-1,-4.2494133E-1,1.9797698E-1,1.5260084E-1,7.0519716E-1,-2.895098E-1,6.1080467E-2,-3.6782503E-1,-6.466114E-2,-8.9920175E-1,-1.5327026E-1,5.4479185E-2,-3.0934805E-1,1.1235783E-1,5.192807E-1,1.3365069E-1,-4.212929E-1,-2.2539979E-1,2.3737466E-1,4.7176012E-1,1.3282809E-1,1.3079618E-1,4.023756E-1,-5.7235706E-1,-9.006324E-2,4.0442258E-1,7.952404E-1,1.6356116E-2,4.447243E-1,-1.10499315E-1,-6.4758927E-1,2.5640008E-1,-3.1883082E-1,5.020203E-1,-2.0394583E-1,-2.9185286E-1,9.542139E-1,-5.9015434E-2,8.813366E-2,-6.4973813E-1,-1.1699663E0,1.1684611E-1,-2.8515613E-1,2.5411424E-1,8.2320666E-1,1.8024503E-1,-2.1192782E-1,4.9290863E-1,-5.1504757E-2,-7.484412E-2,6.653951E-3,3.9523968E-1,1.2478442E-1,1.476464E-1,4.9858582E-1,-1.836368E-1,1.4517508E-1,5.8860973E-2,-3.9000574E-1,-2.617027E-1,2.1437944E-1,1.7132282E-1,-4.6324256E-1,-3.426597E-1,-9.221111E-1,3.106326E-1,7.697818E-2,7.94548E-2,-2.3790973E-1,-5.353633E-2,4.0721685E-1,-8.067419E-1,9.972898E-2,-6.1708264E-2,2.6662487E-1,-1.869313E-1,3.5496417E-1,2.720209E-1,6.904899E-1,-1.0480235E-1,3.822131E-2,-2.704584E-2,3.2206202E-1,2.5919116E-1,-7.0227396E-1,-7.014329E-2,-7.7748793E-1,1.5365276E-1,-2.9495971E-2,8.463748E-3,-1.8021461E-1,-6.3579863E-1,-1.5834995E-1,-2.454049E-1,6.4400727E-1,4.1291675E-1,8.163951E-1,-6.232967E-1,1.567054E-1,1.9280113E-1,1.2816744E-2,-6.360699E-1,-1.6189718E-1,1.9903184E-1,-2.0769855E-1,-1.2439385E-2,5.5551237E-1,-5.4813653E-1,1.274295E-1,3.061751E-1,-1.5815249E-1,1.8228025E-3,3.7404388E-1,-6.515061E-2,-6.509079E-1,4.8694275E-2,-8.7077504E-1,7.573624E-2,3.9586413E-1,2.27428E-1,7.872315E-1,-4.1075516E-2,2.1292247E-1,-3.608981E-1,5.447385E-1,-3.1311318E-1,-1.0212759E0,8.459784E-2,-3.9766952E-1,6.029137E-1,1.3834974E-3,-8.172407E-2,2.5613388E-1,8.793479E-1,1.2875777E-1,3.7787996E-2,-1.5916699E-1,-3.2999158E-1,-9.464791E-1,1.0227803E-1,7.359098E-1,-8.686526E-1,-1.5606394E-1,-7.3921233E-1,-1.6076593E-1,2.7985802E-1,-1.8332474E-1,2.505276E-1,5.710718E-2,5.532387E-2,2.9086238E-1,-5.5783693E-2,-2.5397006E-1,2.8653765E-1,-4.22987E-2,2.5192353E-1,-1.8709486E-2,1.8286194E-1,-4.5704067E-1,-2.7923334E-1,-9.488851E-1,3.736868E-1,-7.518498E-1,4.846896E-1,-1.9918323E-2,-1.8083456E-1,5.7109135E-1,7.392475E-2,5.827378E-1,-2.38351E-1,1.7714229E-1,4.761366E-2,5.7098097E-1,2.1956885E-2,-5.07036E-1,2.2359753E-1,-3.0228636E-1,8.344278E-1,-9.65328E-2,5.495294E-1,1.0195491E-2,-6.1693724E-2,-3.2694927E-1,6.8299836E-1,-1.2592784E-1,5.462815E-1,-2.005431E-3,-4.321959E-2,-1.9019274E-1,-4.3759953E-2,2.2655982E-1,2.4931103E-2,-1.3199306E-1,5.0884E-1,-6.788813E-2,6.982464E-1,1.8591666E-1,-7.7563785E-2,4.4804168E-1,-2.6083025E-1,2.5363994E-1,-4.4162273E-1,-2.7582532E-2,7.0051346E-3,6.0742825E-1,-9.769455E-1,-1.8283602E-2,-9.4224024E-1,-4.780414E-1,-4.6231747E-1,2.0818748E-1,4.4041687E-1,9.966446E-2,1.1508315E-1,-9.464569E-2,-3.4309193E-1,-8.990643E-1,6.153233E-1,-5.200437E-1,6.223077E-1,-1.3577004E-1,-7.9948753E-1,-1.1579217E-1,2.1757653E-1,-1.1734242E-1,-8.3918774E-1,-2.1328206E-1,6.8530905E-1,-1.2645163E-1,-4.943021E-2,-2.4812771E-1,2.2789013E-1,-3.2720506E-1,-7.9748124E-1,-4.2761332E-1,-1.0679745E-1,1.4354795E-1,8.013241E-2,-4.1955534E-1,5.320462E-1,8.69156E-2],"categories":[],"categories_nodes":[],"categories_segments":[],"categories_sizes":[],"default_left":[1,1,1,1,1,1,1,1,1,1,1,1,1,1,1,1,1,1,1,1,1,1,1,1,0,1,0,1,0,1,1,1,1,1,1,0,0,0,1,1,1,1,1,1,1,1,1,1,1,0,0,1,1,1,1,0,1,1,1,1,1,0,0,0,0,1,0,1,1,0,0,0,0,0,1,1,1,1,1,0,1,1,1,1,1,0,0,1,1,0,0,1,0,1,1,1,0,1,1,1,1,0,0,1,1,0,0,1,1,1,1,1,1,1,1,0,1,0,0,0,1,1,0,1,1,1,1,1,1,1,1,1,1,0,0,0,0,1,0,0,1,1,0,1,1,1,1,0,1,0,0,1,1,0,1,1,1,0,0,0,1,1,1,1,1,0,0,1,0,1,1,1,0,1,1,1,1,1,0,0,1,1,1,1,1,0,0,1,0,1,1,1,0,0,1,0,0,1,1,1,1,1,1,1,1,0,0,1,0,0,0,0,1,1,1,1,1,1,0,0,0,1,1,1,1,1,1,1,1,1,1,0,0,0,0,0,1,1,0,1,0,1,1,0,0,1,1,1,1,1,1,1,1,1,1,1,0,1,1,0,0,1,1,1,1,0,0,1,1,1,1,0,0,1,1,0,1,1,1,0,1,1,1,0,1,0,1,1,0,1,0,0,0,1,1,1,1,1,1,0,1,1,0,1,1,1,0,1,0,0,0,0,0,1,0,1,0,1,1,0,0,1,1,1,0,1,1,0,1,1,1,1,1,0,0,1,1,1,0,1,1,1,1,1,1,1,0,1,1,1,0,1,1,1,1,1,1,0,1,0,0,1,1,0,0,0,0,0,0,1,0,0,0,1,1,0,1,0,0,0,0,1,1,1,1,1,0,0,0,1,1,1,1,1,1,0,0,0,1,1,1,1,0,1,1,1,1,1,0,1,0,1,1,1,1,1,1,0,0,0,0,0,0,1,1,1,1,1,1,1,0,1,0,1,1,1,0,0,1,1,0,0,0,0,0,1,1,0,0,0,0,0,0,0,0,0,0,0,0,0,0,0,0,0,0,0,0,0,0,0,0,0,0,1,1,0,0,0,0,0,0,0,0,0,0,0,0,0,0,0,0,0,0,0,0,0,0,0,0,0,0,0,